eval_results_tag,authoritative,agree_human_explicit,agree_human_implicit,grammatically_sound,well_written,entertaining,truthful,higher_reading_age,empathetic,funny,better_supported,polite,matches_human_style,optimistic,structured,informative,engaging,friendly,motivating,concise,persuasive,rigorous,logically_sound,relevant,longer
lr_2e-6-epochs_1-fold_1,0.005424255683694942,0.0003645566740866184,0.01892571190505688,0.012730785715180165,0.003784485606724142,-0.0007899499831435626,-0.0023321005413333793,0.0061838010588665905,0.00021052340222728336,0.019258690167843283,-0.013637561340330643,-0.017663512161260334,-0.014139342749884575,0.00042820105361550414,0.002574593521151132,-0.006460189904626166,-0.0018465988933376088,0.006624902528783713,0.010631214011087672,-0.011148618939844895,0.00041657899624486657,-0.01159772598299278,0.0010183814709069118,0.011568157003946464,-0.006879724776250276
lr_1e-6-epochs_1-fold_1,-0.011263676266783894,-0.005589896333409594,0.014449202327594578,0.02040083457144404,0.011136122721714634,-0.006873292692318099,0.0008697595673208486,-0.01435177622363614,0.0077699418645213875,0.04303055316735617,-0.01229792200127129,-0.01982076269967884,-0.0018602390415565634,-0.003116340671136076,-0.00248014405781649,-0.011946120010996698,-0.010065065921925881,0.006781605344069823,0.008397228301739609,-0.013722593369545533,-0.0010267778566294319,-0.015949745592272167,0.009664119085439085,0.002545821829870164,-0.03213576881001221
lr_2e-6-epochs_1-fold_2,-0.016752405413160785,-0.0057742877079314334,0.011820633917557293,0.025500799297185097,0.01169488959505531,-0.006940410424937939,0.0016812439926068691,-0.01439787173323728,0.012709572904874924,0.04550066110554222,-0.011857038050793394,-0.016375014554723386,-0.0014937606771242007,-0.006337540378824026,-0.001966829301598327,-0.013103547202039876,-0.011741473607066172,0.007108326017096599,0.008986162431920073,-0.01550876443214427,-0.0005846966752926196,-0.01846978266810785,0.013084377719172657,0.0007133999510891918,-0.030243230404521544
lr_1e-6-epochs_1-fold_2,-0.014566757492732785,-0.00674930666277633,0.013728700074200921,0.021763035042877625,0.011829121084716966,-0.007305869701138474,0.001879309932171438,-0.016908850319019324,0.010316094495101475,0.04493157069521423,-0.012283141556359754,-0.019091238271776112,-0.000503995553810302,-0.0054421142580817474,-0.003005928581001249,-0.01252229078265381,-0.01026409200448308,0.0060549593045256984,0.007545830407807326,-0.01349711263977433,-0.0003439759445828458,-0.01673449831848849,0.010761442917135836,0.00013444264064953627,-0.035220894466833914
lr_2e-6-epochs_1-fold_4,-0.014761024787388052,-0.005870986998099384,0.012229283912170893,0.024930904432992656,0.013154204615631193,-0.006668837727843908,0.0008271404529021252,-0.014375695066587113,0.012194024674826606,0.04636084193304474,-0.014158880541265169,-0.01727987579582747,-0.0005037534328000198,-0.005962553250446676,-0.0029762840508126207,-0.012678391711520978,-0.012125116939427635,0.005642477964029249,0.008589639805173275,-0.014345423907482526,-0.0017187465701975113,-0.017178896947956077,0.012804257258007679,1.947690983155649e-06,-0.033886600890906685
lr_1e-6-epochs_1-fold_4,-0.013288399222739078,-0.006975177416901939,0.014381044275655362,0.02123804994653666,0.011891060871684291,-0.007040495293535583,0.0016448091764504809,-0.016589409146164,0.009215635825801176,0.043966097595958355,-0.012241941064886916,-0.0197261931657404,-0.0008477770363769638,-0.00478714438822169,-0.0031617304635053016,-0.012362348391644956,-0.010152607965340182,0.006230614415275874,0.007591507737206874,-0.01343509910734183,-0.0010112427614649023,-0.016163718665366207,0.010617224054019483,0.0005547574687691471,-0.03528785712111836
lr_1e-6-epochs_1-fold_0,-0.01062195546049116,-0.004545409341067194,0.015057793728749365,0.019752649717288417,0.010560319837246777,-0.007098097243202526,-5.22940067111707e-06,-0.011592082199417634,0.006860795526863519,0.04189977427626467,-0.011614494455952066,-0.019708422152235488,-0.0029160181905543967,-0.0023885550627626905,-0.002824264656155455,-0.011925051054059277,-0.00947857685170796,0.007186667573296886,0.007969115858249456,-0.012866853501259995,-0.0014127354746204424,-0.014799505540423365,0.008419541483664361,0.004378708100689895,-0.029807319559451657
lr_2e-6-epochs_1-fold_0,0.006936836138610068,-0.003041805481775731,0.020858186475620183,0.01328476315106836,0.004861658911796434,-0.00034575431434726006,-0.0007354547179695555,0.005585737855668743,-0.0010936837789813339,0.019807839235919136,-0.012162473407792815,-0.016103103261943915,-0.012880058219608324,-0.0010303286544583636,0.002662742947636374,-0.006033278650866938,-0.0005301117799359544,0.004844489081486142,0.011242927113766,-0.009083547115868187,-0.0005513572705052496,-0.011681751083388816,-0.001493092511169567,0.011248112688209834,-0.007295152274725341
lr_1e-6-epochs_1-fold_3,-0.014065603732773378,-0.006961022758852145,0.013846976760341028,0.021766621861329022,0.01207447476120257,-0.0073710842968388104,0.0021039248255174986,-0.016755092857662208,0.009788514316770044,0.044035326283222,-0.012254688795354338,-0.019091595041197767,-0.0006994509055213904,-0.005061184141660014,-0.002826750229998684,-0.012591991247773028,-0.010095338662079146,0.006234885002437151,0.007458263431092474,-0.013550092727528114,-0.0005704922799859838,-0.01654428092643407,0.0109195700413757,6.242207390311227e-05,-0.03517997423223161
lr_2e-6-epochs_1-fold_3,-0.016230449639927955,-0.006935248581461195,0.011887900310528976,0.02599735130828472,0.01167995391472851,-0.00811678987204167,0.002422392831746372,-0.01448312445150683,0.01202729418718991,0.045522845986393015,-0.011762331908329933,-0.01577485148156397,-0.0010526851391305615,-0.006350646397594617,-0.0012366456695198516,-0.013104502902377878,-0.01117795051423808,0.007088945944370845,0.00815041729500418,-0.015049112664734502,-0.0009167197645569137,-0.01755705366874591,0.012934685845733596,0.0010433131104170199,-0.031688039498801876
lr_1e-6-epochs_2-fold_1,-0.011037628318218086,-0.005130053547447767,0.0141952977709711,0.021192051931290867,0.011091148434124945,-0.006572646562121077,0.0002944292261274874,-0.012799347461831529,0.008189226426161378,0.042741811457407755,-0.012244914397811234,-0.019341456747989517,-0.002209842152329033,-0.002731799358978311,-0.002469611992124724,-0.011491001554729654,-0.010214988346018094,0.007065909480809655,0.00829567035893388,-0.0141441011871917,-0.0011685079652925209,-0.015800399179190943,0.01018513533749113,0.0028370302119988546,-0.03040159394640573
lr_2e-6-epochs_2-fold_1,0.005195596408600277,0.0006385694144012237,0.019388594508323365,0.01125974713118976,0.0037123709625743752,0.002946752125174628,-0.0010825284559823616,0.013667580747963575,0.002075369986703891,0.018016141709849203,-0.012713910695142596,-0.018349573424442798,-0.019528870599208076,0.0020211000190288554,0.003046343181084389,-0.006936696276182869,0.001000958186155018,0.005945312851245593,0.009933438741053274,-0.01557050708620853,-0.00016601039250145372,-0.009112570848028911,-0.0014714727877624713,0.015521908265770067,0.0014816150747572576
lr_2e-6-epochs_2-fold_2,-0.016439268248772478,-0.005503256968745157,0.011454079542501461,0.027740180039070198,0.012191521936091835,-0.0069932751823186855,0.0017797676360208584,-0.011133536060239202,0.01410454988813302,0.044672289490024886,-0.011168116712504129,-0.014415087221979421,-0.0026652866382476286,-0.005063601614466113,-0.0005983455023121952,-0.011998018543701557,-0.013316819123159976,0.007537689062651336,0.009416728573514544,-0.017492679666139398,-0.000489192762432194,-0.01918116546556384,0.013653977266780748,0.0011495798606854803,-0.026269588473534597
lr_1e-6-epochs_2-fold_2,-0.014780044725073977,-0.006728552294377035,0.013337984488866373,0.022806668549214464,0.011797816484219266,-0.006964000006312558,0.0020102108180836305,-0.016060736764890133,0.010608678950772228,0.044419740637656094,-0.012535830193297964,-0.018344316699548748,-0.0007845418769746169,-0.005189112105658671,-0.002483360761299593,-0.012527412387172882,-0.0106170296532541,0.0064010891818349035,0.007724266183149995,-0.013707816206114944,-0.0002914818072605567,-0.016802404464024097,0.010876845443800166,0.0002231568134177745,-0.033868089035031135
lr_2e-6-epochs_2-fold_4,-0.014838954719695369,-0.004432897256409024,0.01141890546798131,0.02792580372197252,0.013735156730307676,-0.0066032835586426,0.0013338475756754953,-0.010956498155315332,0.014239153158922753,0.04631630009828775,-0.01402346968896218,-0.015713094453674584,-0.001487122987580983,-0.005287311665895313,-0.0009415559650647236,-0.01180129485137289,-0.014004277529534473,0.006267270131327132,0.009084237066608424,-0.016959132870470437,-0.0015511927980906646,-0.018056685324947315,0.013336804500616552,0.000488642041527407,-0.028942957152441297
lr_1e-6-epochs_2-fold_0,-0.010241712729289261,-0.005137520329291673,0.014890578596720903,0.02042097730648744,0.011130626857777562,-0.006970515201033481,0.0003637972245669539,-0.011007565039013047,0.007398588607911765,0.0414220742997811,-0.011626743176008293,-0.01928100369238879,-0.0030184422676115853,-0.0026404522194174596,-0.002397405445523147,-0.011699662743419617,-0.00979510777589028,0.007517015302519121,0.008089505777551409,-0.013865798177564066,-0.0012065247063702328,-0.015185923200921285,0.008970188898949592,0.0040664340846638634,-0.028884572446054142
lr_2e-6-epochs_2-fold_0,0.006831742505374651,-0.004094535829603178,0.020814749596562574,0.012242338126418048,0.006977983107309527,0.004855259675287323,1.637723022541967e-05,0.013360406932599343,0.0011182777410053055,0.01772782225246664,-0.012059969742001068,-0.01656951598943443,-0.017942231573307064,0.00029075345355317764,0.0011209140094797952,-0.006205247679649175,0.0033602086311042096,0.004366029017291453,0.009261124395336938,-0.011811003866119081,-0.0028372326955032473,-0.009749758766651002,-0.0008350533349102598,0.015143901039665416,0.001213542736400945
lr_1e-6-epochs_2-fold_4,-0.01405851213654363,-0.00696415726556426,0.013727382053654171,0.02247988619646231,0.0123721098820346,-0.007060073500266361,0.00167112126408137,-0.016024833348852015,0.010390891483411303,0.04439430919140197,-0.012797004155198436,-0.0190508721697739,-0.000533558183307353,-0.005171176976701796,-0.002825541398754685,-0.012859532163385775,-0.010391782674221788,0.006296625375419463,0.007366043440587118,-0.014036692634847804,-0.0008962251704950344,-0.01622272999727186,0.011249736748057983,0.00031809986513247224,-0.034731489970380364
lr_2e-6-epochs_2-fold_3,-0.015746984225864433,-0.006436765686435277,0.011166907443370875,0.028497429880113216,0.012133478791661254,-0.007948163843093948,0.002496057404039919,-0.011656094116602794,0.013467222613144203,0.04447466497500362,-0.011748966274076525,-0.014652332136285043,-0.001889875482807988,-0.005561590665387478,-4.27232753849566e-05,-0.012583968263992969,-0.012620123620485429,0.007597796585248157,0.00867641215004525,-0.016542738368132415,-0.0008577344428220448,-0.017811347261139834,0.01390071154188114,0.0013556397683958054,-0.02803996281693703
lr_1e-6-epochs_2-fold_3,-0.013970551546769369,-0.006655115378618116,0.013497117790581747,0.022464265213570807,0.0119062927660727,-0.007335814533794134,0.0017888118516541337,-0.015780743725053763,0.010214026768039355,0.04449569786084306,-0.012431727122528446,-0.018503963081237945,-0.0011005198115902216,-0.004940226287775978,-0.0026330081500467685,-0.012448390601405714,-0.01028669400441758,0.006430193767905648,0.007825755372383822,-0.013801045615171755,-0.0005965106846736699,-0.016422774745855108,0.011311734003436248,0.00024352509793746507,-0.03389489834526537
lr_5e-6-epochs_1-fold_1,0.012612092893235193,0.005053502724011793,0.016934878285922415,0.03505939776703994,0.008372989272942713,-0.00398002547569209,0.0008741324219195984,0.03904027588177244,0.003927290334745145,0.024248148506384945,-0.017960057387377035,-0.013476019623696418,-0.03182897866920569,0.010468716218029155,0.011983863822836961,-0.0025421384961653425,-0.006529961716318509,0.027717532456943444,0.014736967402839843,-0.023582765124839353,-0.009301179577133983,-0.014409843055945818,0.0115194408712312,0.022594694284040352,0.030223951307728213
lr_5e-6-epochs_1-fold_2,-0.02135917954901446,-0.003817110066828146,0.013386804756595856,0.024530934434822318,0.009775174669896991,-0.005291653262588302,0.0035801038901208957,0.002718069868762365,0.02138286708868679,0.03696422353938258,-0.0034320848696431927,-0.011155832569685489,-0.010261764467260367,-0.00391039783506597,0.003863377723432268,-0.009056169065737122,-0.011732991481551354,0.013517679928640685,0.00840469927789948,-0.03351219267349239,0.0024329311392119464,-0.02077989400356238,0.011828979827985213,0.009334845933822479,0.0017459468690626252
lr_5e-6-epochs_1-fold_4,0.0006259741231844245,-0.0010493567780614221,0.021747844514999472,0.013286561890788116,-0.003540823064565506,0.005523298961010151,-0.0017204473603898078,0.04071906114413611,0.006154975965297538,-0.0044687819372179905,-0.009080258196908575,-0.012587344307335586,-0.02345375130814465,-0.0013179816041048187,0.0026804700133691082,-0.004246469560766408,0.020699632684577793,0.013535154026698358,0.011689004769112686,-0.040668087439024454,-0.0012788942098617435,-0.0027293654729192178,0.003329628276624801,0.013954972172209645,0.02613201969143528
lr_5e-6-epochs_1-fold_0,-0.005336005916116725,-0.0070812287748894635,0.014020144371850458,0.03616804559665132,0.014135607323213038,-0.0034057956612775684,0.0039929236900862934,0.01678083510215047,0.0085666465304323,0.024135644676128852,-0.022134109428542565,-0.011288125333396234,-0.008530359404663276,-0.006492189622042201,0.0015996002416680903,-0.013010832664901795,-0.0010910941009104561,0.010541925475470055,0.007815795241579153,-0.01281963580639052,-0.002471777821175337,-0.012980179603835315,0.014935670101421139,0.007528978105896448,-0.013845332440257903
lr_2e-6-epochs_3-fold_1,0.005091033112206192,-0.0008134472853696161,0.020757779632162892,0.01149181821321608,0.004629847221782213,0.005006237047963064,-0.0010433949965364692,0.01899622765015172,0.0040097234797667166,0.015809075724741776,-0.013065583400756102,-0.01919305249107475,-0.02106168847304296,0.001226065172948129,0.0022810410400248833,-0.007432240229438621,0.003871911926803111,0.005009687961778057,0.008803226546546613,-0.015902041392972417,-0.0010188072875313078,-0.008697566984599057,-0.0011382333850789477,0.016314588390256252,0.0039870711787481335
lr_1e-6-epochs_3-fold_1,-0.010665562092295262,-0.004714774547208202,0.014007873893648319,0.021509431226038732,0.011222136056655077,-0.006483091678974209,-0.00010338168645194464,-0.011691155806254091,0.008246101430441527,0.04251836211456082,-0.012125421640401087,-0.01863247185205442,-0.0026507787102193693,-0.0027764931398954855,-0.0017923862541907765,-0.011520906419946866,-0.010579727502720286,0.007390938741990058,0.008574806600223434,-0.014799801620972684,-0.0014016634402694082,-0.015454276298457335,0.01043689760443102,0.0030364908260494274,-0.0291282942829947
lr_5e-6-epochs_1-fold_3,-0.013002503048619773,-0.0066025687745064,0.012719856716292345,0.033207045285529965,0.013026904873878377,-0.009677384821499074,0.005243800029903391,0.0044667678379965575,0.01477173346633542,0.03484342840171881,-0.006217709120392317,-0.006743451456915276,-0.0056551880892115975,-0.003759818323560039,0.006445881325774075,-0.009916255476378597,-0.016253500035105967,0.010569486524701752,0.0072972076398179955,-0.022257160627921775,-0.0020512458404775423,-0.014912969083486173,0.013274173718468221,0.004175508905671605,-0.011147749833785968
lr_2e-6-epochs_3-fold_2,-0.01634246387030829,-0.005166105131078972,0.011388577731215065,0.029050830942918254,0.0126302837505801,-0.006871268928789744,0.0019071501186758812,-0.00830023349556958,0.015276419101335419,0.04415040117461768,-0.010861330988513683,-0.01348141503152192,-0.0033415123468875352,-0.004040416336665447,0.0006180629125423735,-0.011632983804074454,-0.014208840324488485,0.007930215537507744,0.009558551810070133,-0.018603565884084898,-0.0008187683137922215,-0.019648891145169257,0.014014323035362531,0.0013024563101301022,-0.023465725170238542
lr_1e-6-epochs_3-fold_2,-0.014737429756118265,-0.006420974065552637,0.012879070706232738,0.02328598700841181,0.01174270894398253,-0.007086304096497933,0.0016461382691173952,-0.015177223831908577,0.011215408585144688,0.044601697675422554,-0.012732065574503177,-0.017578220567069907,-0.0009378345911818999,-0.005265698813498087,-0.002198011216925134,-0.012865867559278054,-0.010624769061011365,0.006412953808771088,0.007829532005696084,-0.014263443302752615,-0.00020075659329503275,-0.016785442569451893,0.011733398197830588,0.0002939080304898752,-0.033083565800087374
lr_1e-6-epochs_3-fold_0,-0.008989951820968728,-0.0038401930398349604,0.014999867846217752,0.020818360265121325,0.010195786215940068,-0.006936054618179922,-0.0006765419515263402,-0.007213392704646358,0.006981578873374085,0.038838846812341885,-0.012080645344146,-0.019137222593376246,-0.004445766811088786,-0.0020184598632142147,-0.0019140474569482799,-0.011322336395408989,-0.00954010994858807,0.00809009628185037,0.008635738397874635,-0.013540950074506841,-0.0016790712033823503,-0.01472245206390716,0.008586288503268608,0.006105752562461126,-0.0256312708080676
lr_2e-6-epochs_3-fold_0,0.006860892938300261,-0.003759307620917903,0.021238741887055577,0.011587363978875121,0.007708734925200434,0.007171824218060514,0.00039684316026480704,0.01781537670942874,0.0019077061279892873,0.01583112461780092,-0.012602616170131524,-0.017768052216541767,-0.020585263350636478,0.0007607583105049071,0.00104836694241555,-0.006657461167852367,0.004868185270403227,0.0041469478991282985,0.00945999753383529,-0.013673127764803018,-0.003457432827522015,-0.0083408000833499,-0.002044093977997944,0.017570473090914248,0.006075338863549157
lr_2e-6-epochs_3-fold_4,-0.014567378644838624,-0.004099068248823921,0.011242525993000168,0.029278800616926275,0.014038822358412952,-0.006387727782447022,0.00207408786278254,-0.008510552897691282,0.015309440643162198,0.04536623125165291,-0.01386307247929105,-0.015099196367343418,-0.002557246141231566,-0.003944751756639531,0.00027198799127738424,-0.010750829836490375,-0.014838094816281198,0.006859063715672032,0.008895819119648502,-0.018787605575225793,-0.0013252463565505252,-0.018980761393168885,0.013377757623842499,0.0014929033816437416,-0.02535336401080783
lr_1e-6-epochs_3-fold_4,-0.014279575832635531,-0.006869647172118527,0.013563831225905876,0.023009732366063292,0.012111992705744572,-0.007036715957903003,0.0016161599919500215,-0.015397720199093764,0.010882335081888551,0.04439148169043252,-0.012756337285623944,-0.018277775773200302,-0.0009559374465057838,-0.0053351965256379025,-0.002653549818270539,-0.012661735336256278,-0.010601246018291176,0.006346717121350893,0.007825079248485082,-0.014215454278663596,-0.0006220509144282153,-0.016545853958241572,0.011372984553399962,0.00043463454062798914,-0.03381677412748376
lr_2e-6-epochs_3-fold_3,-0.015282902827787784,-0.006066867394392114,0.010933775174982481,0.030287258461879095,0.012994189854338966,-0.007733803153382867,0.0026274285804867917,-0.00885062377876234,0.014555711216873683,0.044276874437403135,-0.011751038900400877,-0.013670157406551453,-0.002539444905382421,-0.004898282258066737,0.0008147826355386768,-0.012575199326783445,-0.013881574040079161,0.00796013878545469,0.008453044115538771,-0.017333141250461245,-0.0007568400638258031,-0.01806082566862612,0.014580225514888683,0.001364173170332841,-0.025482816870025123
lr_1e-6-epochs_3-fold_3,-0.013824417016245129,-0.006621736411548522,0.013322040996845,0.022934328002172745,0.012099032651934483,-0.007036356548691801,0.0015651006387319623,-0.014640332820232397,0.010741403996491308,0.043995298279746,-0.012607028792927995,-0.01778005573364914,-0.0013395976574576687,-0.004761439102086312,-0.0021364464012321696,-0.012508335423144511,-0.01085185202531142,0.0064135363660058065,0.008018009377368065,-0.013997993958402594,-0.000736777793937912,-0.016377491232025115,0.011452813436794877,0.0005417286973155473,-0.03307868362214996
lr_5e-6-epochs_2-fold_1,0.02721458674581439,0.0027516012802422662,0.022000795352769952,0.003155051905176763,-0.003943814652937584,0.014256060217355837,-0.006554083707376747,0.05527117928484016,-0.003278586447916536,0.0037810741075219017,0.0014192664854781438,0.009800372580801565,-0.030714441485405395,-0.0008393327597928745,0.0189779214747878,0.0036560162220400337,0.01372413940504438,0.013617918661240559,0.0025282579151960057,-0.040574823218120844,0.00534920655972288,-0.0065071266009181445,-0.010798597485828955,0.02117085645387977,0.06903262326045934
lr_5e-6-epochs_2-fold_2,-0.023674155512107258,-0.00598490705118539,0.014598065827969367,0.0257818701008775,0.009983524731471799,-0.006910936118850041,0.005114170148183753,0.005850091773683246,0.023374197624986163,0.034602969709884336,-0.0028943622000617455,-0.012172726366435137,-0.010646841336856538,-0.004810785326520079,0.004580628923031289,-0.01078677344206633,-0.01134980858964208,0.013873199430284297,0.007334677906554816,-0.03581776752321648,0.0020033680502040355,-0.01882891603694356,0.012906774959766401,0.010095397657877734,0.0036025351667586672
lr_5e-6-epochs_2-fold_0,0.004286987944612991,-0.005436240507677176,0.014285533944818452,0.03835118343184929,0.01804880396547836,-0.003016417295081369,0.004889024483881852,0.02971684603047918,0.010731448514077221,0.016176755874861427,-0.028421355782670545,-0.00765777403166756,-0.010326029772174596,-0.004570872757199717,0.003960199017300812,-0.010490537265541416,0.00042571532340535584,0.01456824440581873,0.006108393480846299,-0.013799433147502933,-0.004816906396480948,-0.010665527450046829,0.015333907284334479,0.013249759432840595,-0.0031837445086667386
lr_5e-6-epochs_2-fold_4,0.00929101350527372,-0.013229059553683045,0.028837978397461085,0.02640065431709215,0.006276352028915202,0.0032571544486372783,0.004267587678302408,0.07300421275655973,0.01649056284735164,0.0015600767725998334,-0.01428386458074707,0.004734980795285818,-0.025189304104042933,0.0021997337852490257,0.00637869732949803,-0.00028516303652608495,0.01485569974064367,0.015567060552768488,0.005257919347671644,-0.04822449950159819,-0.003659737069827939,-0.010264953062404887,0.0058160233684538785,0.012815450190299034,0.043152900252299585
lr_5e-6-epochs_2-fold_3,-0.011065862440065008,-0.009081068801061468,0.013811241604065605,0.038345127884003606,0.015620523286385662,-0.010254944903198542,0.007249839032990488,0.008714856917460092,0.015796753953050004,0.03290631109549772,-0.006210070828409439,-0.006470272448295429,-0.005975700949639591,-0.00426086809101874,0.008016086743905491,-0.010671839963652566,-0.01873355124702389,0.011442287597814562,0.006148372822247861,-0.02184767755851274,-0.002386255536136691,-0.013421575838420005,0.014262777208713615,0.004496444497714585,-0.009019904271718952
lr_1e-5-epochs_1-fold_1,0.01725014690314462,0.012799193169551061,0.0025855437286556662,0.02841684881935036,0.0001297842651111954,0.020222839696700735,-0.000917391232454093,0.09131739347451581,0.011564949339605213,-0.008300991806895306,-0.0016865811105770052,0.012955073966523659,-0.024023703538707836,0.011195803988596974,0.03274069913711984,0.01860854829565041,0.0011900317068610858,0.015141847210609845,0.0057914260519101885,-0.06266738973436284,0.010704111906261238,-0.008817873363231263,-0.00209636303267406,0.009834469690131237,0.08186969611685589
lr_1e-5-epochs_1-fold_0,0.00022893521517239877,-0.018534841543328986,0.005900655548107447,0.05850835044571723,0.02147756195389759,-0.015808243980967217,0.01069874987475404,0.04781858446431047,0.01286618651298756,0.0003375733896935809,-0.011940243402232759,0.01700439931629421,-0.01633503328177617,-0.006130566706530869,0.020453205936677966,-0.00810286140945647,-0.00274799925375248,0.03164830214922073,0.009682054358760694,-0.023658404176772285,-0.003210188332267575,-0.015754323938033384,0.025932468485898977,0.0053211943447783695,0.025903019563107706
lr_1e-5-epochs_1-fold_2,-0.024396271203401675,-0.010621515646620582,0.0049014641935825436,0.04599105804919639,0.013396527777988883,-0.004226708654092536,0.005068954572303148,0.005299167733264305,0.034896857259011455,0.025464275664338662,0.010421781128475655,0.0028380688895327092,-0.004721851400972895,-0.00932670866932803,0.013044499908979948,-0.009143769043436528,-0.0176480938276264,0.018901872462497395,0.00010803855917431164,-0.036583080950941274,0.0020518963021379562,-0.015484915496639022,0.024228264512359998,0.0019419409240950362,0.018094426244743216
lr_1e-5-epochs_1-fold_4,-0.008836988151856528,-0.013546628902430562,0.010818430158329681,0.041300280357987516,0.014205789850456563,0.007892600806798291,0.007195809657422971,0.04241015546070016,0.021813250394867884,-0.002045545709528931,-0.0062476624261985905,-0.01253239561779741,-0.018195571332093863,-0.01639391838176153,-0.0023187066147304296,-0.008810928541123086,-0.0024287456329623544,0.01864675346867327,0.002064471779035149,-0.03193857536817165,-0.0074701203265273575,-0.004378990290104454,0.020927660611166583,0.0010779727501111765,0.015050185718945952
lr_1e-5-epochs_1-fold_3,0.007591025438166936,-0.015212827943114543,0.01940226671276162,0.040581727091479745,0.017202186663772778,-0.005875014004485202,0.01329978177500267,0.059676988006318106,0.004309793559352972,-0.007664769007959205,0.0012029290512774518,0.007890582908283796,-0.014124766981689262,-0.004101487669300634,0.020180027121088108,-0.0009867108790965415,-0.017463208887620884,0.019293001968458515,0.0022324811523521965,-0.02343162249307078,-0.004633151984825306,-0.001762389631931302,0.01209757536985466,0.010891722385045079,0.0269373579877693
lr_2e-6-epochs_5-fold_1,0.005198877375774886,-0.0010785296554504907,0.020598743348047184,0.011127297689725158,0.004863214607091501,0.005731344611317506,-9.412233667658737e-05,0.02070676509172016,0.0046016364500752905,0.014882186165589733,-0.011810118081001509,-0.018480751967805593,-0.023122513123047833,0.002178557205486853,0.0027361483705453833,-0.007421713477166855,0.003781719062548939,0.00617672613236104,0.008243220702832016,-0.017943002538214653,-0.0011830906718563084,-0.007460938624287081,-0.0017714399813800973,0.01798100554934844,0.007933599552246264
lr_1e-6-epochs_5-fold_1,-0.009483535462780404,-0.003758096349003464,0.014163519307611462,0.022133829997095265,0.011179576140499551,-0.0062476672120759585,-0.001105942520520653,-0.007821224099047836,0.008250124350798896,0.04156890806688578,-0.012207246275624082,-0.01833549835253491,-0.0037329120451721136,-0.0020265591750912157,-0.0014625703853424052,-0.011031255444912836,-0.010796107242066005,0.00788378680530687,0.009469922547388678,-0.01507534413929035,-0.002020761682257196,-0.0152436088499108,0.010177836455101476,0.004543515106354432,-0.025355435113151633
lr_2e-6-epochs_5-fold_0,0.007990928056676592,-0.00564345075013307,0.02113981347287943,0.011479003092599057,0.01006539271962741,0.009962793104079175,0.0018269212771927714,0.019371932765962694,0.00039526326839744454,0.014055790978125907,-0.011289881516868893,-0.014360661897267245,-0.02252714585620775,2.894869538013682e-05,-0.0014687288224323402,-0.008365711083475183,0.008512033805261623,0.006941514900184766,0.003808673054453709,-0.014918037834022839,-0.004373386892424137,-0.007138450650090326,-0.0024891372916408675,0.021582649615041652,0.011406439444370186
lr_1e-6-epochs_5-fold_0,-0.00877968361668377,-0.0038707693110960426,0.014772356884769734,0.021159512296869954,0.010505901767150237,-0.006621515552599236,-0.0008775006597616599,-0.005311948005968559,0.007662737200749481,0.038831304415176404,-0.01180820593209385,-0.01820908091471377,-0.004731207408371437,-0.0018105928345744145,-0.0010214444316232717,-0.011295364672083148,-0.009724997351997021,0.008355727874197324,0.008648096532582777,-0.01442848769811041,-0.0019574605676429854,-0.014678391670058025,0.008674642351926045,0.006634440875978271,-0.02367927013282886
lr_1e-6-epochs_5-fold_2,-0.014734715037230953,-0.005876769248534246,0.012321048639231919,0.024737192732017424,0.012230628914102173,-0.007019053679828045,0.00159088461932665,-0.01350478763433737,0.012138250057807614,0.044383386464985936,-0.012730820704731017,-0.016522950869368284,-0.0017001670778767298,-0.004755530237014967,-0.001685821103498425,-0.012335287553149202,-0.011581723357971576,0.00658840353235298,0.008465951742167648,-0.014910251956191596,-0.0005300967492998074,-0.017069355484415107,0.01223461373653914,0.0005130063205213472,-0.030790921848887858
lr_2e-6-epochs_5-fold_2,-0.015500758904385032,-0.004601662762336978,0.011045224897253715,0.03108182291510705,0.013280292117263438,-0.007121238994125549,0.0027079143335257674,-0.005903662770470013,0.016786913219561776,0.044132419225218884,-0.01077750565563062,-0.012454075381373908,-0.004813952607284492,-0.0028030388697152745,0.0024504631015312686,-0.011053483269535,-0.015777821456054584,0.008283566783437732,0.00935954126031041,-0.02007702976306447,-0.0007460984798866341,-0.019977659893613508,0.014671445082585164,0.0020350403055898894,-0.020575888791088983
lr_1e-6-epochs_5-fold_4,-0.014092573990278509,-0.0065874615975874025,0.013130682897137647,0.024214651960570585,0.012321504995501737,-0.006743682345900903,0.0014510398152807443,-0.01361064934755341,0.011648454066646392,0.04415024066254817,-0.012947390638986346,-0.017551627114133904,-0.001394098895171823,-0.00487028339665661,-0.0019690341206922667,-0.012344320525276948,-0.011327206156055803,0.006668499446144855,0.00813031179854485,-0.014884593614246057,-0.0008545021148311091,-0.01668207081677938,0.011923820502338898,0.0007536916773156609,-0.0318919936378356
lr_2e-6-epochs_5-fold_4,-0.012872887139041495,-0.00442343445061411,0.011789989300141331,0.030502007057093806,0.014770199819774166,-0.006342234398162305,0.002899893430116771,-0.005144366713024437,0.016580033727143364,0.04441303829049018,-0.013651289368568353,-0.014970736039556714,-0.0041005758432297494,-0.002718283792041014,0.0026018016220560143,-0.010169184342428556,-0.015951888612645168,0.008414255359174002,0.008556540338062392,-0.020929477610322503,-0.001608740033013283,-0.01951901667362974,0.013716382279433219,0.002862031281209295,-0.021272553743556966
lr_2e-6-epochs_5-fold_3,-0.013917441746283801,-0.006151240565120081,0.01061850513308116,0.03354501751986315,0.014445802171376504,-0.008093496881576184,0.0036021840370267936,-0.005108344529502112,0.015970028739787194,0.044502782434745376,-0.011750978086297376,-0.012378863970143412,-0.0036437550861431376,-0.004183390606443053,0.0028042425862115665,-0.012331326916394148,-0.015714813561541023,0.008465566157566882,0.007924416024723742,-0.018316428058255615,-0.0011286142759628637,-0.01831882905161542,0.015362989576610813,0.0020509755986204336,-0.022414266775872462
lr_1e-6-epochs_5-fold_3,-0.013494761067246983,-0.005999849769822015,0.01283171682829779,0.024436844406456028,0.012519667146810295,-0.006954509415818045,0.0014182263291679727,-0.012341957297067604,0.011172243173930048,0.04377481806237696,-0.012846559081661038,-0.017146709724941957,-0.0016751308789331345,-0.004314621584960722,-0.0014837715669730762,-0.011962008542571895,-0.011792207717326182,0.0067637297322975356,0.00843447091925639,-0.015055499637973754,-0.0007917512227775415,-0.016489850915400804,0.01192892312372867,0.000837147884979312,-0.030888120449683944
lr_1e-5-epochs_2-fold_1,0.028847402567188398,0.012348819014081261,0.011292733106391789,0.04372381323617392,0.008336879757545062,0.028606256658089163,0.009267677593809172,0.13577407810018266,0.020385819292192072,-0.018224439997854017,0.005033214526620775,0.010458864488542696,-0.04297132256830582,0.009854924145248498,0.04168819089236935,0.02323224916537701,-0.0068353023899049995,0.0246996612198735,-0.013627366064187973,-0.08775826537124531,0.01582708580041458,-0.003603187611365105,-0.004371170960421229,0.020479602738664192,0.12699862826381086
lr_5e-6-epochs_3-fold_1,0.024804827346097378,-0.0014652873377893373,0.023174754418357774,0.02403200390873864,0.013002002916995803,-0.0005376042792728699,-0.003456011898446182,0.046022550241955854,-0.0008414525314753387,0.020668756724992143,-0.012739026912932997,-0.00438995256413953,-0.02367605724930319,0.004623758180078193,0.015280495310944116,0.0009199578398175357,0.0028036774796735067,0.010847525849546834,0.006910641875756689,-0.02145271025868496,0.005018545914305271,-0.014154735342970143,0.004947114287386878,0.014295936802051695,0.03721661387694149
lr_5e-6-epochs_3-fold_0,0.003692588985669575,-0.007583514156145388,0.014817532912839397,0.043356585987224854,0.019815863989929152,-0.00243022735199386,0.006242020968914302,0.03242003538918248,0.010138715015010945,0.020041300867928623,-0.028991844097671117,-0.007460996708837728,-0.008860303667114851,-0.005889664053502831,0.005542377453522279,-0.01239674587027441,-0.0010676027724538485,0.015258885507983983,0.004264716789692308,-0.010666800337943087,-0.003373538598915547,-0.009853796528500162,0.0194296952551936,0.009503288495505876,-0.005338288731184944
lr_1e-5-epochs_2-fold_0,-0.0033254540897053133,-0.02358030625456966,0.007713545724926233,0.04942538915073366,0.020279717391732472,-0.010368451582127847,0.007056602256016911,0.050035350608787506,0.020543964055843782,-0.008682213020549131,-0.007969143443525383,0.009401175346864906,-0.016944270466923032,-0.01301413540009761,0.021034595914260133,-0.005141247415158151,-0.005238883298689948,0.023352605780110038,0.009606506868555494,-0.032652082806244084,0.0008966509818528572,-0.01283833190614745,0.025717521978315998,0.009878217562305024,0.03495469268134987
lr_5e-6-epochs_3-fold_4,0.012000400657432318,-0.012905613226260805,0.03122282155353457,0.02873159152562742,0.0041061299214551145,0.006079709785650586,0.006181471569566598,0.06657924560101847,0.017571655116157353,0.0007686459758564142,-0.008174419004338162,-0.003599100446305986,-0.022037002471114595,0.0009032771753975873,0.01254886915291597,-0.0011336065030611768,0.006700895106629651,0.015513359118596824,0.00374356917896239,-0.04827976988028236,0.0017819414670032794,-0.008562661341121781,-0.0020155614615715487,0.008969262979404537,0.04004285188968924
lr_1e-5-epochs_2-fold_4,-0.005987429217805489,-0.01821746016896224,0.00856004299048302,0.05212279057833519,0.015621680146547964,0.007926338129671171,0.017542790393201654,0.07358316178210925,0.025189715630125446,-0.012158591771463,0.0020168719554541368,-0.00785525865556487,-0.03261892822349213,-0.019116609545330746,0.006942143085666916,-0.01264386596591312,-0.007188120543627784,0.01961915093310308,0.005055454083350804,-0.045170421675330384,-0.0030915656592424173,0.002297851743238845,0.025049703437588406,0.0008452074681885025,0.038754837061010745
lr_1e-5-epochs_2-fold_2,-0.02617882103488221,-0.017649279242303056,0.006007387684027733,0.06429272533593448,0.021936854306122754,-0.011253354269560362,0.01279872108369961,0.020022208741194588,0.04252023263284222,0.017967937359838333,0.012347862089879666,0.01279907680910136,-0.011902986222397627,-0.012568975478314525,0.01654651129317305,-0.013046540534629475,-0.018792206297300638,0.02387565826381699,-0.0046685833646712225,-0.045421845446207594,-0.000512114121649128,-0.010658866342268418,0.03015174991430933,0.0052895695121335145,0.02635589020491211
lr_5e-6-epochs_3-fold_2,-0.02377755109602652,-0.00798690830961563,0.015206106662520211,0.030278527639331445,0.012335834280363828,-0.008614356624317487,0.006099197609706372,0.008171700662416041,0.02572063418790532,0.033754052735075764,-0.0029471673941532145,-0.01084393196785416,-0.011514970045147144,-0.005035241736772274,0.005674697254505424,-0.011839604691160164,-0.012904091711664482,0.015105619849317672,0.0064781079698909795,-0.037392020297537874,0.0015829329152361289,-0.018775458993885823,0.014458488875215197,0.010647428504665697,0.004417890048268419
lr_2e-5-epochs_1-fold_0,0.025554388029716334,0.00028537192178278853,0.009759617632523228,0.022469693239683435,0.0046314345629474545,0.01626295253672049,0.009193774323325734,0.08062001627688636,-0.00882946267817741,-0.018401975025114408,-0.003204741414842833,0.006622974559840435,-0.02643337994413407,0.005265555472511994,0.019921771890582862,0.00884854142110128,-0.005614308574750799,0.015601201498378004,-0.000979754213045518,-0.022753999793792404,0.006196705573338622,0.0002033619672480811,-0.004275702843278889,0.01749401494765734,0.05815555942618236
lr_2e-5-epochs_1-fold_4,-0.041638556727148765,-0.01915146187118485,0.005487578995468697,-0.007994393987436349,-0.005230582708397074,0.029434245848225658,0.010227285482191584,0.0629292891858211,0.008507417446153801,0.01147338780433393,0.02831413827733971,-0.029735076669087937,-0.027231368062231535,-0.03027301605559834,0.013391138037221986,-0.00043009045796643636,-0.014045997081959466,0.012229933882467505,-0.004024981947082016,-0.07305230083832942,0.007015640550501594,0.020309601321461125,0.020924214785984167,-0.002774681423085875,0.0648181819332536
lr_2e-5-epochs_1-fold_1,0.05174017896569622,0.00879248744315532,0.009741513027513549,0.02665352243796764,0.0022866960801578404,0.02651123430851773,0.003350184677243514,0.1079682729616278,-0.0019272846123420011,-0.03879845498609767,0.017223189496679756,0.015764522746567335,-0.018500724940582598,0.015332235434185845,0.057010117851561765,0.03134094636325761,-0.01670322588038501,0.003476962192351006,-0.0007827667716309092,-0.04257552059684833,0.01177874703143066,0.0071663467432507375,-0.005611979947978834,0.013450888155410647,0.1083923386664793
lr_2e-5-epochs_1-fold_2,0.005485828809794678,0.0021953861711946077,0.01205567891107741,-0.004706583313694193,-0.011605588863413053,0.01716285315967054,0.0055950294477946465,0.0885287282983787,0.003835469523400157,-0.03332242688278755,0.0034215273694849003,0.0008214318140833033,-0.031693462946858694,-0.0007954265147156951,0.01836222654115504,-0.002440371200114244,-0.011273872646336933,0.0069467164181453815,-0.0038270500269876762,-0.039354562718505896,0.016149182178696347,0.0209802142480506,-0.0007985139404471236,0.010644067208199054,0.074164775436617
lr_5e-6-epochs_3-fold_3,-0.010985062387823274,-0.01076366051491533,0.014042732814243966,0.043434320968452664,0.018466251526278,-0.01103878400074694,0.008915514516416208,0.010098578000554522,0.017437947104279525,0.03375956374058072,-0.008135041606386468,-0.0076561430232843656,-0.005121893243511322,-0.005821632663887017,0.00825812275199285,-0.013100698981906841,-0.02047693984085516,0.011720702958358512,0.004585349706570464,-0.02093184437561046,-0.003575342308880381,-0.012016561073970004,0.015729542609440705,0.004885782696861141,-0.010850618283690385
lr_1e-5-epochs_2-fold_3,0.019721176814707687,-0.022535857536070326,0.02508877336223312,0.06447424934480343,0.03183877760062971,-0.006704150397810058,0.021143498436317514,0.08686044831989057,0.008339087384348102,-0.02087890723110167,-0.0039045869778163997,0.012122772072162223,-0.016182899603446415,-0.006204173124516555,0.02969796069300623,-0.0029997078690858587,-0.025543171885369673,0.021662253512654668,-0.0002888519981025838,-0.019420637262472958,-0.005500862350961315,-0.0025322294439606785,0.01514251324431948,0.01349658336028206,0.04044303002933472
lr_1e-5-epochs_3-fold_1,0.019199813983604482,0.002704168076739996,0.015176026814971901,0.04534803463659441,0.018595821479759456,0.029736430567529785,0.014823914234497635,0.12121936512221236,0.025406585599173533,0.002851529324876615,0.005168039944629325,0.007720700110459253,-0.03517808779866568,-0.0075557076498786934,0.04743269026924587,0.016373483886412264,-0.013761244069870924,0.019013855551414084,-0.022711645126485516,-0.0840867560329597,0.01560996992635108,-0.006147128295276595,-0.003391966461474348,0.009368937894875577,0.1275380346019575
lr_2e-5-epochs_1-fold_3,0.029496726110820184,-0.03026926688525202,0.017830494502430638,0.08513539340751779,0.03246107022379362,-0.007325230752091596,0.025623523793565875,0.1287421590147281,-0.008807051356729415,-0.05611766547904976,0.0377936965595963,0.038363651579762646,-0.026026831111338626,-0.008263611609300059,0.03475084547627108,0.026521476509499844,-0.03158376534525053,0.016529592136095547,-0.001557639326516409,-0.028898572633709433,-0.0059440425890203204,0.014690714740226185,0.021961704685287218,0.012822617255193057,0.09290988821908389
lr_1e-5-epochs_3-fold_4,0.009062854664712785,-0.025143977490789976,0.013191134663934566,0.07384243809839239,0.03146830350677122,0.007840164742428164,0.032795173812753736,0.10321640553392804,0.02574859701832901,-0.022923689319475436,0.002008774134213841,-0.004750979622725262,-0.03861737954500301,-0.02017778133572305,0.006703370212458544,-0.015154925502973916,-0.020403146392482707,0.030711180042907293,0.001360918231727014,-0.0436534594072127,-0.004633772786252241,-0.0008561432610348341,0.027978937914881447,-0.0018330687086845917,0.03940775007578241
lr_1e-5-epochs_3-fold_0,-0.017574953518069016,-0.03417915204579844,0.0027863383092561035,0.10567017642824152,0.02928301360604243,-0.03324840190292776,0.023349322586396343,0.05849918824564764,0.042064513404633117,0.0022610742634242733,-0.005214188957526291,0.031678587265382724,-0.022873207804872887,-0.031270761374101196,0.02531067143322284,-0.009104956537339112,-0.00982378100050235,0.02408079483955406,0.013623986914241154,-0.051012305515143457,-0.0020023601767109873,-0.011782201522640395,0.0468895360867666,0.00809086976238804,0.05117900622127585
lr_1e-5-epochs_3-fold_2,-0.022057613231570187,-0.022618224330386773,0.0017227586425879104,0.09274995076687244,0.02865389734510868,-0.016577445682672016,0.020280989138270363,0.018545153441861535,0.053499122796541516,0.017274997268386983,0.020078722288163653,0.014469870220389973,-0.01266813766043131,-0.0124648294976257,0.020528804530988248,-0.013288389474094397,-0.026975354615110858,0.0336040199580809,-0.015608611300999744,-0.054326710236112866,-0.001113446779518616,-0.006098396319578261,0.034472572348594945,0.005995096480168289,0.035731866188056426
lr_3e-5-epochs_1-fold_1,0.039866831885484205,0.01219619139034335,0.004833978257277825,0.07070325856231106,0.030221449516412424,0.008764987968322728,0.002668227752428684,0.11493199847245246,0.010442361021742485,-0.03314737741106286,0.021578314958234004,0.015950529269467526,-0.029342083958775057,-0.011486426454478433,0.05174824476523559,-2.836490893462871e-06,-0.05166028149335863,0.0017548812973480921,0.011296621910987112,-0.017781858081573395,0.02218855233634267,-0.015680316439360256,0.0026805950022705995,-0.003630552075576287,0.06437029540851816
lr_1e-5-epochs_3-fold_3,0.021174965833760787,-0.03222031482408716,0.028436511961228702,0.09359566812783375,0.04690843259641187,-0.015618419701555055,0.03145680883688278,0.10900946616883324,0.016570685292854336,-0.03346193527482072,-0.005414943083568558,0.01703199882480925,-0.01810002007842248,-0.013702665215912686,0.039838438900006115,-0.005938409982375437,-0.03240530443215749,0.028410552201943617,-0.0033214503434802773,-0.020486831067281722,-0.0073613996944053945,-0.006327487861843718,0.021165083933812605,0.017418603188736705,0.04752117644543053
lr_3e-5-epochs_1-fold_0,0.07919368446547102,-0.01657316567859858,0.037171739106487384,-0.005265250120474851,0.0021929979858720467,0.016992018572636016,-0.0016139851490134674,0.12872691211708204,-0.018299490682708097,-0.09167482444945851,0.0238250675848995,0.031825238813243076,-0.026592332976611684,0.01620213943045851,0.030728238166409346,0.010997842049139202,-0.009352740989517189,0.008770992830087122,0.007395222300300288,-0.003461756686801532,0.012305252452073074,0.017600028225746148,-0.0098394718243373,-0.0028099252535791937,0.08279184005650866
lr_3e-5-epochs_1-fold_4,0.01617603065570442,0.005481754754266002,0.027042546682647765,-0.05704261669838067,-0.05303602553972841,0.06939549364856315,0.020198701595747316,0.15413719791774708,0.005626913857064356,-0.10013608503574863,0.10488092272031058,0.008030675519601486,-0.09705978695739564,-0.005523442586178325,0.04668666970356926,-0.0013805261760173305,-0.025932830073219854,0.012954948956256521,-0.022753113189606586,-0.07481081820606654,0.03916714408354596,0.072368737941464,-0.012420892786866658,0.02545114942807244,0.20249159202749742
lr_3e-5-epochs_1-fold_2,0.002286913798508699,-0.0022010068914408917,0.0036007244175547065,0.014959158041172213,0.005846515891772427,0.007736599976364046,0.004966234900856238,0.0642470581668505,0.00034102132133826985,0.01148953470927246,-0.005803450902078731,0.0008846198871780583,-0.02077522468676971,-0.0024738793742841983,0.0050098786189416745,0.00923881577884002,0.006024539906234214,0.014832850013272949,0.009141933313935664,-0.027761731461685115,-0.014378030848417293,-0.002623239757517692,0.010376616402165669,0.005709107688217073,0.03164591914025734
lr_2e-5-epochs_2-fold_1,0.03536873855962404,-0.0341323945632091,0.023281168380449954,0.09826537885682926,0.03367060058060304,-0.0038905666217748445,0.047429422013721564,0.1792561182465424,0.045179493947948374,-0.020050400771744192,0.0032832665862990097,0.00910721143977445,-0.04132044465412091,-0.04170778665557761,0.05098981135311435,-0.0151118163742796,-0.035915458124797635,-0.001301635871084666,-0.0041019898503337066,-0.08391819159227155,0.004777630496327997,0.017480789999135243,0.0075143859133751986,0.011954278557317961,0.14550627325152857
lr_5e-6-epochs_5-fold_0,0.005695003979468013,-0.011338387504933671,0.01608025761305437,0.05581945849695159,0.027133165880660663,-0.0043728324230887065,0.00899463969653381,0.03689040409994621,0.014932545670398046,0.021959755536959894,-0.03280352294849875,-0.011248904460526246,-0.006000982895982971,-0.006692603369436481,0.008317385957362183,-0.016741747810669887,-0.0032280976448755367,0.01819108197539772,-0.0007258384065490737,-0.0070350662651069975,-0.0032217792208863853,-0.007409340725634377,0.025145950256598784,0.007091026810835321,-0.00923869403944965
lr_2e-5-epochs_2-fold_0,0.033868080024261366,0.0006806677448077184,0.0151219416629882,0.04853181819718928,0.032009196067922824,0.022902629025132723,-0.0005289773835235684,0.12664194982254615,-0.008626584613491525,-0.03362869022709604,-0.008313774666262317,0.01724085341062126,-0.030100777094668265,0.011832502053558167,0.03293713952022647,0.010909656803026715,-0.004801934196963513,0.013475745575743,-0.0025018045337977714,-0.04264207356704184,-0.012273389876318118,0.0018332594234010437,-0.01475699207907843,0.026910658915511247,0.07044401827373867
lr_5e-6-epochs_5-fold_1,0.025192975186620267,0.0026720690934936703,0.02080172499066957,0.03947050235869511,0.005454715453653604,-0.004332641064425624,0.01082397015290878,0.05015162581994912,-0.004622809538517106,0.006872899848287717,-0.008590846726039778,-0.004406931659532869,-0.031443713117189215,0.004498404313583063,0.01952780253867715,0.001732774074953378,0.009955273330511681,0.012283486575165807,0.0031632627214221894,-0.016739452971522475,-0.0054421471774586255,-0.01305812951216577,-0.0002713377385627994,0.028300722892708602,0.05034614778025203
lr_5e-6-epochs_5-fold_4,0.002998012181213808,-0.01621912863104643,0.03870933615550888,0.03783691788373273,0.001523667696243688,0.00961461618142032,0.003977343540466227,0.062348908677842124,0.023563783955906865,0.010416497505396062,-0.002721331810155516,-0.013193926583855979,-0.029103462667424973,-0.008091642319914358,0.017546102099353044,-0.006242901453123909,0.005753988960207695,0.011262909479028624,-0.0014876545785988287,-0.05805199092745631,0.010601716175870347,0.004206956090426316,-0.0014529544554491517,0.010293250073766573,0.04293234408749156
lr_5e-6-epochs_5-fold_2,-0.02623006318867593,-0.008390418451015371,0.015184074677838942,0.03504264835306015,0.013725163752907851,-0.011991272994781036,0.007062560072245711,0.005545582347605183,0.029330386746265594,0.03553910339808286,-0.0021282311320957917,-0.011218218117029558,-0.011595272079691157,-0.0049782319274032025,0.00612777641885112,-0.014059784231537205,-0.01465695352870014,0.015204073852760791,0.004644922106564864,-0.04068287337866035,0.0007487631770516049,-0.01742313463613721,0.016032239232281153,0.012336468836166502,0.0025422444976532974
lr_2e-5-epochs_2-fold_4,-0.041624601047444726,0.004950055515807,-0.0054276392496732245,-0.022664557041339913,-0.027571184472138372,0.020382057036517395,-0.0009069977171814917,0.022629823219940823,0.004055068583073852,-0.012323445454003917,0.04648475782601181,-0.008751452089844333,-0.03934695367998944,-0.04309791502512185,0.009068115111780337,-0.0034617332511813325,0.00525864937937496,0.015361273305845562,-0.01164085619763021,-0.06831272782597395,0.010109209825158744,0.03759259248976454,0.03208893595038433,0.007049714059796015,0.0837063253142859
lr_2e-5-epochs_2-fold_2,-0.02416479882038939,0.009292706120712438,0.01310137658255467,-0.007025622823038419,-0.014732369272819255,0.02707345595080988,0.02151764042597987,0.14307152400038503,0.003227996446597233,-0.04542510169060122,0.005741450449784217,0.005462624167599361,-0.05986638344716575,0.008891000829834156,0.02619681398211705,-0.0017464747384272744,-0.001961219583989031,0.025764922249461773,-0.01289829111427663,-0.08801406184009714,0.0069480142142969905,0.04911812352204834,0.018364498581109386,0.010108682040170203,0.10420043311691046
lr_3e-5-epochs_1-fold_3,-0.0009038940478142091,-0.02858481944952064,0.008499039964376995,0.10190574155067224,0.020425017617648547,-0.0005786875400918979,0.05223994934821784,0.1169135892149473,0.032303434696298636,-0.006493843353892661,0.0494972639515804,0.0037326440698599622,-0.06691528816689228,-0.013985879979988836,0.012074326988719101,0.009338785785305432,-0.06877181165640771,0.018718424402021122,-0.01685101548263261,-0.06615801393879815,0.005307920574215957,0.031176474642979374,0.055424131639803885,0.012374537062109073,0.11899761190494215
lr_2e-5-epochs_2-fold_3,0.0546932077312359,-0.030910421079060293,0.026789094740671256,0.1025569856737671,0.056998447237026975,0.004230497968099121,0.0396250713590782,0.17955998416436703,0.007454226299843498,-0.05013562426489951,0.011761045543037295,0.031091348542128007,-0.029595185993831086,-0.01290048702397335,0.03691703141892336,0.018193479847270117,-0.04924321142618333,0.012862287929991952,-0.009439387425566832,-0.023930071824081297,-0.007531289514715354,0.008692649230131832,0.026223569460674393,0.01576282664262138,0.11173677421952599
lr_5e-6-epochs_5-fold_3,-0.012169308726699815,-0.012983952899650354,0.014211517769408552,0.05518794747254754,0.02225048235389018,-0.015807440265444714,0.011523131696193798,0.009341629345001526,0.024092569780747728,0.03782092920334279,-0.008789842790624933,-0.008871808366258248,-0.0047703510719420235,-0.007825966925261165,0.01096651121947994,-0.015528949998419571,-0.025805621323197313,0.013352647960021198,0.0009197691798754255,-0.022043567705987355,-0.0038145153745014196,-0.012230502239807633,0.019137839094949677,0.005606990358296259,-0.013830883684325815
lr_2e-5-epochs_3-fold_0,0.0493158492329304,-0.0008179330094987974,0.02182639293807492,0.006025593246008339,0.0014798036762276468,0.02663382275469564,0.008087562387096982,0.13376606428544996,-0.014661115956446907,-0.044136301358733955,-0.00868685459621317,0.03632858386187398,-0.03907624182145059,0.028196459271631613,0.04032781597848241,0.022457047751767604,-0.021870985685983748,0.0071650659208324675,-0.0031729118014229493,-0.03617857243990119,0.009359979493120162,0.013242475198920887,-0.01959965113899325,0.018716511427466928,0.11219041095237273
lr_2e-5-epochs_3-fold_1,0.037501827920035515,-0.006993096671485233,0.0025046233946477564,-0.09310079038465202,-0.016162373639313,0.09774925157538057,0.02465817526561613,0.32274572323290296,0.01436603029719132,-0.2163183386301869,-0.00026877131969859226,-0.009812505788972713,-0.12044236583681332,-0.004391183278293535,0.04805374938294504,0.07768903754989828,0.028254867145076967,0.02403608104201768,0.016638596466769736,-0.152281811719331,0.01725449427696417,0.03417068373429378,0.051049452827448744,-0.007175283603372183,0.2903885199439103
lr_2e-5-epochs_3-fold_4,-0.0808055232603833,-0.03919727916248521,0.0175036304857088,0.10393917829115609,0.04674406929059023,0.012913359957013041,0.03667226752405999,0.15472367436554524,0.0548112301634966,-0.0035612773852457687,0.057187924539088615,-0.021563283965693316,-0.08211537712997406,-0.09213419880387945,0.008399323398284092,-0.04175609872514771,-0.059622780996981345,0.0028308715138854884,-0.01149799625800751,-0.12004529529294111,0.014038932566093863,0.015214331146775957,0.06374587152918039,-0.0019578027330432817,0.07919886509916961
lr_3e-5-epochs_2-fold_0,0.09286923848526021,-0.03211147301955958,0.04643195993664577,0.06963778613844523,0.027751857631963077,0.010277783818806768,0.039280391262761616,0.20086659134478466,0.0375109591766648,-0.11520942778958491,0.023177967561053496,0.049102287327768564,-0.038687641152696496,-0.016704532224007487,0.052130439629007416,0.003382341259155699,-0.04746881504502828,0.009021526242597085,-0.019127029307254007,-0.020766189082038453,0.007900964129115333,0.04491647055775766,0.010035249099989596,0.0018793125395572333,0.12932271925908503
lr_3e-5-epochs_2-fold_4,0.04766915235452463,0.03279630489506101,0.006793396361782986,-0.05386915891253711,-0.031516703462023794,0.044306267295488304,0.017771535948166134,0.14527131852367972,0.00447529428381716,-0.07426700116812843,0.1029261898880281,0.022307248247329742,-0.07226202122800678,0.03609981731233234,0.04630884715448662,0.020383926021643108,-0.038408512505494034,0.01673400121669662,-0.03421377823453573,-0.06820076457173191,0.022772304010313212,0.052958984369918194,-0.024136457815403446,0.0016809041604732948,0.20612068322186597
lr_2e-5-epochs_3-fold_2,-0.014476059578634052,-0.017654681305679293,0.03533735639371379,0.05500423805514311,0.02253065099323851,-0.002715478253952443,0.0414035392355862,0.19024503093219755,-0.007167795956314152,-0.07554038740081927,0.014821857713268756,0.020995767061180393,-0.051950794776314056,-0.0048573130627013305,0.06312172390130215,0.00290379361369574,-0.003316389663896042,0.04158272455291276,-0.019920011999470605,-0.11211641625539949,-0.0017058372766871888,0.05109835083924143,0.024575074460375174,-0.006668580040024012,0.1128771232343943
lr_3e-5-epochs_2-fold_2,0.007393513714858522,0.01802079367241208,0.004027859726706913,-0.009440460471783136,-0.005243515364612522,0.021322618776216808,0.003449809924460373,0.048329379824050264,-0.005367395381966523,-0.014636469243188992,0.00530798505732607,0.019427177021781008,-0.03510916275003368,0.004049188351247519,0.005526665049709916,0.00780380971957161,-0.004211442305596578,0.01969500850520554,0.0004771909909979787,-0.02369364596616839,-0.0001165750634369786,0.008769088637167136,-0.003930190076829187,0.011370525360064238,0.05173723229799423
lr_3e-5-epochs_2-fold_1,0.04144447223790932,0.01660596987078647,0.003897286954811064,0.15639884633850665,0.04250005472602668,-0.01620268235249921,0.0467710785005943,0.2568594255822179,0.06737490119794762,-0.14294760091334552,0.07914125057738802,0.010236332463049797,-0.06782487473668025,-0.06573615931190542,0.09681919440138148,-0.001961632620515397,-0.06691896604932596,0.02031231117115427,-0.020883297019933977,-0.079435084501768,0.041342911520362666,0.0203967442425116,0.03035811647938872,-0.01276761183899841,0.1219321895705783
lr_5e-5-epochs_1-fold_0,0.0035642336413282314,0.0033784922410945526,0.0021704260409502246,-0.0006794297884195603,-0.001818352811809765,0.005571832538512591,0.0032386045438566277,0.019058807118561255,-0.0016399448145416253,-0.006016749500989545,0.0002659149228784865,0.0052004610146482695,-0.0169252132630365,0.001431693690779606,0.0024431213730229787,0.0009265593227078072,0.0007196706965658839,0.007028451184899772,-0.0014106740940620435,-0.007316078705237266,-0.00042245471983628786,0.00285276064267846,-6.728495728336404e-05,0.006913443131963173,0.02057246299102269
lr_1e-5-epochs_5-fold_0,-0.03387867898432309,-0.03696756561847484,-0.017551755360895923,0.16895315324583848,0.04880996622185968,-0.041000173629255364,0.0321579911265266,0.030451436411361308,0.07506345780341657,0.0044800997921941215,0.009847924154214018,0.024927582006786943,-0.01978200816631451,-0.04737799292199078,0.03420307723501463,-0.010509799581707937,-0.018683300959705697,0.04065606904548789,0.00627739589147548,-0.06233166251242364,0.004127252484499643,-0.019280710160448557,0.06205908400513996,0.014283030300503695,0.0565882677721222
lr_5e-5-epochs_1-fold_1,0.00031344599343279,0.00039502915593431307,-0.00018958085916000918,-2.2818950991141525e-05,-6.341348367485154e-05,0.00023096044487370146,0.0012525572685917813,0.0012332931334814842,5.284429363142113e-05,-0.0002968150685190538,-0.0006596578899607366,0.0005682796632386411,-0.0010104663050986178,0.0005633543819629741,0.0002098494343370411,6.276500158589896e-05,-0.00014629465017799883,0.0004609643281520287,-0.0003481981610502186,-0.0006351207194822909,0.00042013923808081985,0.0002142414716770111,-0.0004661341596820167,0.0003988433842648545,0.0017939497108224317
lr_5e-5-epochs_1-fold_4,0.008871815520009915,0.006089422191346672,0.008218688563949403,-0.009049004186544488,-0.007113110998258916,0.022765324917291677,0.016813760096304448,0.06470825966591105,-0.0064370804758192976,-0.033500190870414503,0.006583706677917015,0.014884563112971344,-0.06336874854758741,0.0071692073206372055,0.007648383254676998,0.005474963836652302,0.007423807936253459,0.016045452066881374,-0.005604556152244431,-0.03418789447480173,0.0013930918639721134,0.018156809256467357,-0.0026016758031566604,0.02463517032616208,0.0724450610579584
lr_1e-5-epochs_5-fold_4,0.01775810656596398,-0.0318138089421996,0.013783401052953085,0.09896772437078726,0.044964568959706484,0.016192949136416366,0.06325256074467028,0.14207961138895814,0.029989588886647985,-0.052108363143355506,0.013814740952329877,-0.0041673120007670456,-0.04647979168806894,-0.03166558332289547,0.006502181504805428,-0.01604882697732092,-0.02810424400215065,0.05031422028840713,-0.00301738234809237,-0.05931468179203111,-0.004379490598796904,0.0027455954616281315,0.0451287844177502,-0.005939995920461901,0.06616073471321629
lr_1e-5-epochs_5-fold_1,0.03853342261640571,0.0164844955524195,0.03193462744344601,0.17795252666824793,0.039207133724207505,0.004302494278777969,0.03272549114657862,0.11843178742141167,0.04946222143291598,-0.0019754960507578564,1.5743139417927302e-07,-0.03144994202967309,-0.0191357078661848,-0.04196266273611722,0.049164525780938766,0.003946358454027254,-0.05481805654480485,0.04699042153779275,-0.020055319481535303,-0.07379061250991482,0.04385378219580386,-0.011685548837703306,0.009131117975153617,0.025366585673927928,0.10286789377446176
lr_2e-5-epochs_3-fold_3,0.11580215212003955,-0.03155724082803657,0.030462592833614577,0.14204137515235388,0.08353544993392327,-0.015598137730458433,0.06945105866766614,0.242610333064117,-0.005155242629506129,-0.09523049299806499,0.04250250174449763,0.04577733132881823,-0.056567709050036524,-0.013033731331275429,0.05629958093880764,0.023036670453190893,-0.06639175175744932,0.025227091849384473,-0.04017306960985733,0.0005833487655917636,-0.004837189235024322,0.030199472732196708,0.031934423252369726,0.00901227092093415,0.1339744371254173
lr_5e-5-epochs_1-fold_2,0.018272976583195072,0.00952647374746532,0.006013073450402239,0.009299130061502712,0.00328702907836034,0.02281650798315092,0.002085847472892083,0.06888850633742594,-0.007399287122359172,-0.021273129086174472,0.006914249696797038,0.0034082757341293607,-0.040685131287536855,0.010363330076172966,0.00822913845939096,0.004909018285277962,0.00032848491129729255,0.009912977911855327,-0.002017178671506605,-0.022777004603889293,0.00346160918917557,0.012508464151217927,-0.009434472877569294,0.02227366561679851,0.06570844717163565
lr_1e-5-epochs_5-fold_2,-0.007798972382070984,-0.02573457226064256,-0.0028926570610687263,0.1116002554178368,0.04092710535145855,-0.02801083137314277,0.03031464244858608,0.020981932166592443,0.07158726239006546,0.009206615432321617,0.021414920334289805,0.01810401901249653,-0.010935565528305578,-0.018461726783466147,0.03146918774918236,-0.013991385406322936,-0.036440677242027555,0.04188857994765198,-0.02138458212597002,-0.052501822232233056,-0.00017751529273160528,-0.0177101499637823,0.02958700526754836,0.006730166685958781,0.016769782929816984
lr_3e-5-epochs_2-fold_3,0.02604405013439388,-0.01152415086984461,0.008932280224368054,0.03716038969034409,0.016871975731595136,0.017591874844759613,0.025269611887569682,0.13254918445778185,0.015903102411541192,-0.014121903704573594,0.0013653184988426288,0.005547469753581452,-0.04728200672312569,-0.0017352158974281964,0.00204308622699717,0.0022885921610214816,-0.03676101790069059,0.015318129764232843,-0.0008324598353057558,-0.03527859106085699,-0.0006608865247103319,0.013920377415852609,0.030865950230171288,0.009801228762925496,0.08429381765934331
lr_5e-5-epochs_1-fold_3,0.022790123741939138,0.01950849442924185,0.006313165196454171,-0.005466106490724989,-0.021205669933780424,0.047192102426463586,0.023249269358796808,0.12773103520189374,-0.003561752003612722,-0.0529117217412943,0.00198734645943717,0.01959377695771591,-0.09310578645409791,0.018570140007003324,0.024087669790022952,0.006547580203212858,0.002774318037728078,0.039122152319936654,-0.0059376097447585464,-0.06162951416220482,-0.0018163670972356737,0.030235970586884806,0.0005697994982594504,0.038962474106458714,0.1418700737735658
lr_1e-5-epochs_5-fold_3,0.040497619863416524,-0.04434045416817607,0.03551679865027551,0.15362079397358502,0.07622255652436755,-0.029746583631032317,0.0511908096272928,0.1656258050289898,0.02642144130867644,-0.07673170287834262,-0.012540361898733856,0.037354682202074614,-0.024433049944455502,-0.014339684013947899,0.065211344748512,-0.006359920071451585,-0.04858263947353273,0.040226048778297226,-0.00467995462248409,-0.014045306630393854,-0.01560174916485198,-0.01591046421026384,0.03102673288355246,0.024070689205990342,0.06188509254551644
lr_5e-5-epochs_2-fold_0,0.013658945103802167,0.01539474656845171,0.005274348884353556,-0.007689504285843994,-0.011364097305636188,0.03415840135169332,0.01781497834934564,0.09114716133815708,-0.002558214484669592,-0.03850634033333049,0.0023283253288932664,0.00886616931921427,-0.07076954811587656,0.010884450894997837,0.01485054028223146,0.0059913084095809055,0.002703802862326079,0.026197747354534985,-0.005417246178516482,-0.045879457524432087,0.0010017811805293486,0.02381008044362469,0.00048776845920024507,0.026615064894482086,0.09858501149380508
lr_3e-5-epochs_3-fold_0,0.05602261214881794,-0.02843675232225215,0.016672217712433206,0.1567699279479846,0.023118547216944847,-0.0443873404194978,0.07624068905976887,0.188322891494221,0.012646905051081401,-0.2193630344979477,0.11683272227038234,0.03407576719542846,-0.032701897700853244,-0.04768654938501101,0.0645384437052693,-0.02103662769558381,-0.019879672733651398,0.055553665505553115,-0.022737480777436956,-0.034062073607078254,0.035684626740325465,0.10972784793540011,0.08781111698079433,-0.018803223442206925,0.1451561807345968
lr_3e-5-epochs_3-fold_4,0.003686163197039955,0.0012917737254546646,0.014367419967120489,0.016097758201163395,0.009146174444589008,0.007816974063729054,0.020486947636018518,0.08950770464895014,0.007564474039713937,-0.017475568955026725,-0.012349782865796636,0.0009136519897298751,-0.06123081614992674,0.0025537269896975805,0.012491379395732607,-0.0042242827338261285,0.00355452785825242,0.03084314936153146,0.0009509814047523012,-0.03256235237233038,-0.008581306421445556,0.0028898175474904525,0.0013649328715975434,0.023585718155955553,0.06990512459311196
lr_3e-5-epochs_3-fold_1,0.05327682897746523,0.011999357707388011,0.0001770283675073784,0.15432570048892955,0.0070107897640668895,-0.05601904001326132,0.042834090945128335,0.18200592227691878,0.03285022614303864,-0.07661721817117324,0.06124048936371464,0.01709680528822998,-0.033908024903544075,-0.0654209740669719,0.08885534140088441,-0.01140125672727505,-0.06534627576642986,0.025744527461217807,-0.007999082933970551,-0.04966755954997399,0.03271508496439551,0.044337268705722695,0.046088556460735244,-0.031607292144077044,0.0402673283404088
lr_5e-5-epochs_2-fold_1,0.021421292098830234,0.019617415472023406,0.00811575328903279,-0.0020068169633415817,-0.013990239653797358,0.045745699229428796,0.02112499982895275,0.11760265392084339,-0.004953412713841604,-0.04531330488534428,0.0030729314926763577,0.02273953023870529,-0.09405493237279895,0.015929451484459574,0.020139938739940307,0.00831338500421104,9.097282096112223e-05,0.036581750604673585,-0.006392082757191577,-0.05624982907052825,-0.0003213124674570078,0.02710630746370452,-0.0022603572004964954,0.035906135369020264,0.13467496441557653
lr_3e-5-epochs_3-fold_2,0.020716647184171353,0.021851215550220432,0.004853289573454196,0.004352476993013056,-0.019249813327349916,0.042092932684696965,0.01325536364380445,0.10997835547158719,-0.0003192836455608006,-0.030560037381938274,-0.0012221160410251777,0.014576658645476151,-0.06484428788338091,0.01623256394321387,0.027263931460242485,0.00612163093566409,-0.0016730400874382751,0.030301668772587255,-0.008043343422755474,-0.05276401684932348,-0.0037026536404923954,0.02124743484526185,-0.0018043221578731734,0.03368042708721349,0.11512195227716274
lr_5e-5-epochs_2-fold_2,0.008515396405217451,0.013806847656032406,0.0038653904030889323,-0.008947841007857189,-0.010817296961317299,0.02079131808511624,0.012771679827685588,0.059225679487749795,-0.004817072098429153,-0.025261625386966732,0.006088992751892154,0.01109036745555652,-0.05951440908926946,0.008009843807763761,0.010259030264929667,0.004350709148136129,0.0073521024693923975,0.021655462402222075,-0.0055913324750318655,-0.028924582089023543,-9.000496910847866e-06,0.01572837436964544,-0.0022244368834449177,0.025214208923481904,0.07163962561503057
lr_5e-5-epochs_2-fold_4,0.010213467184304251,0.004115294903583939,0.004465615100905444,0.01185420091598113,0.0018049220084503592,0.02290905368106937,0.00998770405994668,0.06291169727772493,0.00829023613529258,-0.019668491908150388,-0.0052537415348462724,0.010410421297583928,-0.03921537651863448,0.00950481306550482,0.010924692428701867,0.0010135874595110785,-0.007639507840641179,0.01617111021071841,-0.007860852585721017,-0.029874197505593614,-0.0034877335177668917,0.007853297433121697,0.0027156495400669986,0.015688985371007692,0.056832358454677524
lr_2e-5-epochs_5-fold_0,0.061270787686829024,-0.0357940993957188,0.06137925634101743,0.16066490164095776,0.03808396734901038,0.017611986803271678,0.06199352917023551,0.2091047827291934,0.045724050283654276,-0.019784125903444204,-0.05398106350865973,0.08800855144434483,-0.06051413818588945,-0.011327285726543712,0.07148695610954546,0.025985796073228852,-0.014832991972975764,0.010304692872888006,-0.026747056679541244,-0.058703746205924605,-0.043440170519783314,0.031662312462557074,0.013899759740186233,0.05532900639898008,0.16828660159759598
lr_5e-5-epochs_2-fold_3,0.021688039793666024,0.008583815565141255,0.012718374310873326,-0.0027895636351576996,-0.00018780356615161382,0.0233869461807877,0.01539200879180008,0.0883738021453225,-0.002462672637081116,-0.026829789809184903,-0.0015544290227964325,0.027058208249735337,-0.06592914090297658,0.014157801184222739,0.009792485717053498,0.005538144432249159,-0.00218003352030373,0.021774444451014032,-0.004694999912216516,-0.0331823502428417,-0.0004112720637241916,0.011681139530058315,-0.006043148698592611,0.02492881823190428,0.09505234279225186
lr_3e-5-epochs_3-fold_3,0.1134349509545011,-0.032079320842235165,0.033256174695474254,0.10993001787913795,0.09830732163802196,-0.014287052772716585,0.10758908134370584,0.290419635696466,0.004714445445919339,-0.07986689392093894,0.03469230179192367,0.05054336706841709,-0.07159009757907768,0.020737962953470284,0.03224805505315724,0.008031654928807658,-0.07723721263000524,0.02819560651082405,-0.013300786720932926,-0.004798374521051148,-0.012742359913503868,0.06702589595076233,0.05505968677045735,-0.01596407328385395,0.17588606498432302
lr_2e-5-epochs_5-fold_1,0.048038769386566045,0.04858769019801529,0.0056855645651380515,-0.1687647374227225,-0.07650570391356572,0.06001000680443364,0.02984803365370315,0.2769379064943602,0.06267986326570141,-0.13480243489345542,0.06606336041645189,0.021650577542482334,-0.011703494428100666,-0.023667505903651666,0.0768597583509871,0.04754078908891599,-0.04793085476048917,-0.019732294630800996,0.003647668801828763,-0.23498731951197174,0.07231079076421415,0.07219424003659347,-0.010515796050514913,0.01934806953112007,0.28613813440358365
lr_2e-5-epochs_5-fold_4,-0.07149690369712101,-0.03563153132375324,0.024108301898707555,0.19551358397691274,0.024822455934341594,-0.025693665748521687,0.12773425592138327,0.21813456501928594,0.07454410727677115,-0.09186981682646922,0.13582620044048685,-0.02064992375859548,-0.11033180568309732,-0.11509037222442815,0.07198699035287255,-0.0629361620526277,-0.08454684795841509,0.08062729813212155,-0.019738221925343295,-0.1244092754307518,0.04770805227660359,0.0052561133013338136,0.09260445564696813,-0.009496105192984994,0.08780995337815163
lr_2e-5-epochs_5-fold_2,-0.06340249300234514,-0.03457730832512278,0.020338624355650703,0.18020964375040738,0.03540900855219236,-0.07645654588100541,0.09561886980013709,0.22834618524386738,0.05739548836876277,-0.09423498983585638,0.060578248530532695,0.033359551924637174,-0.04317409835750579,-0.0528725847327591,0.0849543371908404,-0.03885919821759792,-0.04925751252129105,0.0485917225322768,-0.05363452887888982,-0.16811805054919657,0.05950130930925069,0.07767868686677068,0.09042829322507678,-0.02440311955245393,0.12054795992343399
lr_5e-5-epochs_3-fold_0,0.004518314903437516,0.0006428973161512891,0.004087578893979603,0.0024291377324524325,0.0001429286914509907,0.003806945848833551,0.006185307754899637,0.024373579923408915,-0.0015287245627106584,-0.007327618314057689,-0.0015979091490907105,0.011141408757539639,-0.023414368001721614,0.0026216557652607303,0.001041123461992794,0.000882741226323053,0.0013271205030777153,0.01043801681293492,-0.0009090331101259401,-0.004309658159256096,-0.0033122845522912474,0.0005685750673659539,0.001099124333293846,0.008724205846879886,0.024110319547532053
lr_2e-5-epochs_5-fold_3,0.09080042857127225,-0.04948215057621402,0.004562488633256365,0.16696271819016886,0.1295736612502057,-0.02844549604649794,0.12820390571857768,0.3099065562514287,-0.08067563369883254,-0.17393508434026592,0.15603756795954266,0.07230302365012663,-0.05494961859260428,-0.0014393003612297266,0.0748994739760447,-0.013045499461420227,-0.053413428533267145,0.04698295426254164,-0.06900181832338599,0.023135958374830776,0.019332324050464998,0.11677604202203232,0.023272072481777782,-0.04292177154240042,0.1574461428760615
lr_5e-5-epochs_3-fold_4,0.01026067509488351,0.010510346494141613,0.005505225077192549,-0.002878356917756085,-0.006968565856593489,0.021284925149120587,0.010790502508912187,0.06489838691961936,-0.0025971058756298284,-0.02667632454069762,0.001804385031360846,0.011979299403976355,-0.052433643964939276,0.007964180691845268,0.00923041660548993,0.004407258452414031,0.002690752800049287,0.020486049692728315,-0.004140655097808043,-0.02918205448426629,-0.0012193162166356207,0.01311316351651568,-0.001296848527983575,0.021605896093458227,0.06984934659294002
lr_5e-5-epochs_3-fold_1,0.010329769171418228,0.015455183324833068,0.0041449602496003895,-0.0007845438540592666,-0.01054592915391231,0.026026601453013224,0.011999639757128174,0.07003582833203215,-0.00475446150703628,-0.029712208864679818,0.0021718095461795974,0.011476177043493118,-0.058302123372179916,0.00860268658261306,0.010966213296254721,0.0055762730601693275,0.0015376561850514048,0.025163988786861127,-0.005895261188608435,-0.03304098595497661,0.0017083872208889985,0.014336910342374849,-8.256756611038293e-05,0.024748285502914996,0.08024023111255044
lr_5e-5-epochs_3-fold_2,0.0028428226931125865,0.0021765370364854823,0.0021520584624699635,0.0023603904718624584,0.0001364974726782153,0.005283858431709725,0.003307510330910448,0.01728062260764482,-0.0009227545794059839,-0.0049430110381013794,-0.0006692102695639048,0.003081188273816744,-0.01281345814418117,0.0013975477188579249,0.002256595833442952,-0.0002566577507092519,0.0004146275287920107,0.005048948184919003,-0.00019388334797273282,-0.007161615527534816,-0.0010823422732209984,0.0022690864628348187,0.0007439983090730504,0.005611386290902949,0.014467568545263666
lr_3e-5-epochs_5-fold_0,0.13980186776157924,-0.02106037906735711,0.03865040407485496,0.1516660712430011,0.06260999531651106,-0.043072404470267986,0.13882861731423907,0.2982881756583981,-0.008907867720470823,-0.2560410872297166,0.08054882682530495,0.028200414939310966,-0.03764861042440411,-0.016087046022961102,0.14113742275968819,0.031192257734222743,-0.024690298135039975,0.029567349065687358,-0.004139582128053036,0.07291193594190512,0.008667272516533028,0.0842167739796913,0.04379277458162453,-0.006977525502559499,0.2301351640321455
lr_3e-5-epochs_5-fold_4,0.029157029158554105,0.0824687766092746,0.025124133693922183,0.0552415056738475,-0.1158422326518827,0.022939833633732688,0.0902884759181274,0.1404578825906524,0.09284529855911014,-0.11137411542231809,0.23338818843954498,0.0336355369560274,-0.1693801468342426,-0.06562704231149391,0.13743763840987233,-0.007667714521531697,-0.10059591403373158,0.07443606062240343,-0.07101385020785195,-0.12861692426284652,0.1236437895587982,0.06022960041214868,0.018397758992879668,-0.02675768956586158,0.3250197645538125
lr_3e-5-epochs_5-fold_1,0.047419613073496736,-0.018463494325691165,0.024631342365282607,0.3829893344177918,0.061400098525008405,-0.15825293622092265,0.10813096719705399,0.3657114763015955,-0.02790394284158916,-0.39867483440695367,0.15825273698882977,0.04261710029713805,-0.121542027052087,-0.09568005088279208,0.18924687936205928,0.029057070395688177,-0.07581501430067873,0.0852532688351963,-0.026025355775535455,-0.060416916091843256,0.07614561897150328,-0.003606392342695351,0.07026742513427153,-0.03817023136797341,0.09315745532324288
lr_3e-5-epochs_5-fold_2,0.02548109489982961,0.011651857320730381,0.019577916023601868,-0.011315077778682603,0.014320228583008715,0.014078190535940614,0.017671628669360392,0.09387789150933137,-0.012257004454062618,-0.03887855165524128,-0.00729034823631066,-0.00810564518233894,-0.05463714807203295,0.010013223324812333,0.02243283519097594,0.0056720564818387754,-0.00030994314985738315,0.016659188010138416,-0.005046815995092975,-0.030255947318918147,0.0014518208975041434,0.0224545829440811,-0.01847668523669079,0.025622840648054077,0.09442786464953319
lr_5e-5-epochs_3-fold_3,0.008211004188023424,0.007550611034141896,0.0006811295670887037,-0.00144965326450022,-0.006922480785073295,0.01603472754855592,0.006349456967294799,0.04108108265042826,-0.004248434238426291,-0.016339783392957285,0.0028640141074915085,0.00728952466050361,-0.029667904293202554,0.005031466106033088,0.007710405016891865,0.004127594194883783,0.0010720827362961773,0.012252360633217189,-0.0034653787423475912,-0.016919015674216734,0.0015428192883404808,0.010572527119095294,-0.0013213773791876625,0.010718656790403383,0.046002488025931265
lr_3e-5-epochs_5-fold_3,0.2658809935360942,-0.04573553180859044,0.058107208269138094,0.11019957270280328,0.12537205406645868,0.05878016895650317,0.0674665530475609,0.3326808656224804,-0.2324963059522412,-0.17414569344338626,0.14665768311046523,0.19405310358496922,-0.11997314704084494,0.07339338340029179,0.059620320597759305,0.13783086967877806,-0.06361459014094001,0.07640268278042485,-0.030923720522991353,0.11506069939606746,-0.07528281174953112,0.14234037409937508,0.058092013012009454,-0.045139140352807756,0.19687708263408163
lr_5e-5-epochs_5-fold_0,0.015829421333129017,0.014966059760214416,0.007884869783956217,-0.0031356100427781734,-0.008902612981753204,0.03047708938147054,0.016530815487007,0.09023530157926068,-0.00429219599861485,-0.03522206514469754,0.0014607467326444312,0.01639403174523148,-0.07452298907731277,0.01100976697604191,0.015644909074028466,0.005593844347373894,0.0028811604899385323,0.028996509575131293,-0.005971415099885196,-0.041459612447787134,-0.0027986543609737624,0.02026829297211428,-0.0025379209128153068,0.030493114895835588,0.0962639450567559
lr_5e-5-epochs_5-fold_4,0.014346977396192742,0.018584351529152485,0.0076007283917159385,-0.001252479372779065,-0.011302814877181136,0.029574840502153314,0.011445290895358349,0.08538286834741574,-0.0020943141785140134,-0.03857372865754827,0.0010651523585580441,0.010622919114457544,-0.057851670637349535,0.009291493362980727,0.018675730955233564,0.008715983973146968,0.0012805893949374792,0.02715958303275782,-0.00655219253547038,-0.03923556139780003,-0.006332316622247935,0.01567467863250423,-0.0057880890869854065,0.026342137921894,0.08711763897219912
lr_5e-5-epochs_5-fold_2,0.08946221207599409,0.09648891964246542,-0.02517402815932278,-0.08053856472758922,-0.034863877655341755,0.01871740626535667,0.029936444632096278,0.13990536445708954,-0.04003446278909177,-0.1227379456301752,0.029254384180485506,0.003960355475956364,-0.08364866048041678,0.05014116985694307,0.06619020212418393,0.0489591485069357,-0.011823869892508788,0.01063727335286027,0.012688545669768115,-0.04458938310119726,0.008684394044008316,0.06126244412566172,-0.05343903312753493,0.05338345198259904,0.16355284819201066
lr_5e-5-epochs_5-fold_1,0.006045273279746533,0.00590192302916601,0.004695348039994312,-0.0032640371059783797,-0.0032653960666433352,0.013493039936915141,0.007955388963757276,0.03935653937541825,-0.0015023288549998802,-0.01620419689281176,0.000891414130153939,0.004326945563630083,-0.03211110977547342,0.005120927592857524,0.006899360693044684,0.0012801490219973024,0.0009562877736679969,0.011661461253196231,-0.0034683458222574837,-0.01849181389184101,0.00041125394448391153,0.00932337538547378,-0.001282924492287849,0.013069725911098812,0.04160427595026506
lr_5e-5-epochs_5-fold_3,0.04542115554859628,0.01721384459083694,0.014205205448953675,0.0037526180173742766,-0.0033051637063127425,0.03695977673025218,0.018539265992527035,0.11364630653170947,-0.016273662486486415,-0.031460748828677054,-0.002511293396653763,0.025440000529729317,-0.07525414780284105,0.016115249777323665,0.026041279381900633,0.013259248975835776,-0.01117579449804627,0.0281921323601326,-0.006836709689450025,-0.028628329924305956,-0.0006386336895462773,0.01551478589500915,-0.006955017808364144,0.03044538080161505,0.10794466770385674
