eval_results_tag,authoritative,agree_human_explicit,agree_human_implicit,grammatically_sound,well_written,entertaining,truthful,higher_reading_age,empathetic,funny,better_supported,polite,matches_human_style,optimistic,structured,informative,engaging,friendly,motivating,concise,persuasive,rigorous,logically_sound,relevant,longer
lr_2e-6-epochs_1-fold_0,-0.0018170539595014179,0.001090901880188516,0.016120064940638088,0.019964966931964864,0.008174000868714686,-0.004893633629139303,-0.0032540831397764123,0.000922783635599326,0.0016087231374632281,0.025999171094797227,-0.015002288590807312,-0.0169530849489969,-0.00877784210186692,0.0004718814105431868,0.0019037435879841835,-0.005204008736721115,-0.009515577116266133,0.009742425500354177,0.01072758312791719,-0.012122802582372454,-0.0018899772137314988,-0.013842719587631886,0.006018585584263835,0.006729381977601776,-0.016788780033770368
lr_1e-6-epochs_1-fold_0,-0.011490673379481748,-0.006053600518678839,0.01491043348649012,0.02046050331768198,0.011358477897930345,-0.007095665125948358,0.0006073782203700234,-0.013670207015664359,0.007809530827136589,0.04251841943554785,-0.011359625954935186,-0.01971070907221113,-0.0019863179180678054,-0.0030335826094809695,-0.0029385788553509167,-0.011705528232137812,-0.009966181344748224,0.006664458307622568,0.00823470581836591,-0.013875540199527405,-0.0011288534446304787,-0.015593417801383382,0.00935972092518798,0.0026427329861737226,-0.031217778105181015
lr_1e-6-epochs_2-fold_0,-0.0109255433322754,-0.0054041767231799796,0.014701502069816512,0.020893462799987265,0.011416729197820115,-0.006806406320596781,0.00020991133033039196,-0.011910889945913035,0.0077989507514388675,0.04148239210243583,-0.01154215481779518,-0.019013177532045292,-0.0027995753812250744,-0.00282879027077666,-0.0024444378174114717,-0.01179903605490955,-0.010096643877708046,0.0070001724764632185,0.008834290192450252,-0.01467674020264253,-0.001489116283160763,-0.015183078268901468,0.009689036687596575,0.003393762111596398,-0.02931051372442848
lr_2e-6-epochs_2-fold_0,-0.004411731373183894,0.0014963741253441588,0.013802214767406933,0.022700725752234144,0.009007835504631757,-0.004774101823639863,-0.0025198449799810297,0.003757312948859279,0.005667349579202247,0.029478672603102305,-0.013635153223910505,-0.017004195900719096,-0.008602190256391067,0.00042168053932574326,0.002280917397566595,-0.00697705709122772,-0.009820013341822458,0.00910253428017617,0.010178563610050484,-0.01600358648527992,-0.001724010385975478,-0.014493305425026299,0.008223085889157569,0.007840641309025379,-0.01333312493220902
lr_1e-6-epochs_3-fold_0,-0.01030004259682479,-0.005387775245823184,0.014556450084311084,0.021172553833478668,0.011278346344731238,-0.006581042068084434,-0.0004643443825474015,-0.009951661589521486,0.00784961870145832,0.041620738431791524,-0.011468385867833667,-0.018121541871733354,-0.0030844817268481906,-0.0024593415725994742,-0.0021684820895251033,-0.011799469375864029,-0.010164071940407145,0.007573938616322233,0.008590581553657292,-0.014964416612485341,-0.0014644710361337403,-0.015239108730909832,0.010035035619226022,0.004000270810522672,-0.027445509185098558
lr_5e-6-epochs_1-fold_0,-0.007991669211702508,-0.010034677712988958,0.013846851199610342,0.03827294991061257,0.014097549418397429,-0.011100613442399834,0.004474835996613192,0.007212534393798083,0.015790235116819807,0.03250561658992691,-0.009948526716142771,-0.005816693661127691,-0.00739589086112081,-0.0009547780474370654,0.006595310641843177,-0.010477102468636007,-0.016075712032657705,0.012936210587904265,0.009475529835820878,-0.021695756845650806,-0.0015522066645175304,-0.015738635541878758,0.013072937702826599,0.004379923020999782,-0.010252612611027298
lr_5e-6-epochs_2-fold_0,-0.00994058300406912,-0.01281854475157999,0.01468978014185829,0.04379503144628563,0.015812743409028343,-0.013810245534847975,0.0063056609454413305,0.009143138484481884,0.018690012598245483,0.027874922137434293,-0.008467795401229375,-0.004091788232105659,-0.006701594265923333,-0.003460254608978736,0.007752456831807385,-0.010271225851998507,-0.01825084336007919,0.012974035428066407,0.007978484714580084,-0.022465132382467886,-0.0034064371785906024,-0.016720687371203302,0.014189064884345872,0.005447774754432645,-0.009115493419346577
lr_2e-6-epochs_3-fold_0,0.0020015361163661233,0.002850562567477514,0.01617098863604402,0.01966424242020446,0.007055176554263888,-0.002699006319954604,-0.0020827339090729734,0.008634954223797812,0.0026141826123525264,0.023983661303865575,-0.015673251091519222,-0.01521678124819895,-0.01300425853191254,0.0027158858558108514,0.0032621402933473704,-0.005548815720469129,-0.009325439607868722,0.010707344794175976,0.010861063940509182,-0.014669828889381613,-0.0009611072028812414,-0.012185062493613095,0.0057715598658256255,0.010171140285413603,-0.00680703929165169
lr_1e-6-epochs_5-fold_0,-0.00956389542985032,-0.004495003160340552,0.014189156801245925,0.02209539116884801,0.011780732674756154,-0.0064062693058236685,-0.0009098124856733974,-0.006758513889814426,0.008426086018720597,0.040536619819886544,-0.011178918310634441,-0.01754218899749294,-0.003771112762759409,-0.0019034563641511192,-0.0016298568990960533,-0.0109312769662004,-0.010933629406059811,0.007887055196551649,0.009374275490945301,-0.015756920943127955,-0.002114225890475128,-0.015066495457138066,0.009992672458740144,0.004364064527500589,-0.024352290302498122
lr_1e-5-epochs_1-fold_0,0.0012371031441992999,-0.0059521263256785,0.010763381903763653,0.033635969411449584,0.009941149852900392,-0.00393121849623708,0.001188628710482554,0.04477608883333299,0.009060464025080817,-0.0060032791895796595,0.002546604261192713,0.005154277418450261,-0.01737090609229936,0.004050619498323492,0.016392333586573347,0.003107069123025165,-0.00563207414915297,0.020032708927514156,0.0077907908198118336,-0.03001254557987889,0.00919769613485594,-0.01683864327035538,0.009944157579959118,0.00831119028183282,0.032192221050866505
lr_2e-6-epochs_5-fold_0,0.0037607581142533163,0.00258798537248907,0.016701952005817405,0.01965598815493606,0.00661256522515003,-0.0019455429162521327,-0.0015533902230785266,0.010519844680033495,0.0016561350333950278,0.02322045593906586,-0.01550480772333489,-0.014024996186223743,-0.014492358793180483,0.003220594442144031,0.004415527010385903,-0.0053138954428774,-0.009029210954394556,0.011543809208321279,0.010221540946692406,-0.014833903818988102,-0.00042368222606532606,-0.011431515466068186,0.005105361821688347,0.01107387626600204,-0.003116518352193725
lr_5e-6-epochs_3-fold_0,-0.009899570553630171,-0.014496497788502717,0.015175512068309588,0.0488878175183258,0.017394667952066494,-0.015919990354670836,0.008020743808994457,0.008942238124767181,0.021054644769196447,0.027384848269014384,-0.007765279903752113,-0.003381879777339771,-0.006308773259250457,-0.004926613514052731,0.008728914001691953,-0.011055271356716998,-0.020668774724806896,0.013158628540836333,0.005877959776601239,-0.023033563322330135,-0.004029743561307405,-0.015784139957853476,0.014934660081985933,0.006358802861716362,-0.008277411335818911
lr_1e-5-epochs_2-fold_0,0.003491803965814532,-0.008390508948034801,0.012002791703325561,0.04779415657820494,0.015267349356189988,-0.005202342468960886,0.006661945854672771,0.06063729384080519,0.014193338173977154,-0.011873520669963038,0.004091987925910805,0.006401627614270226,-0.022170834945345993,-0.0027714104904803865,0.023300647532382805,0.003479441182122397,-0.012691491710828631,0.022068131464997417,0.002495556685866342,-0.03320002974448659,0.0071197077435645705,-0.0142206433176241,0.012380033339394327,0.01062400279225836,0.04016770299697403
lr_2e-5-epochs_1-fold_0,0.047670871422083316,-0.01738341517377245,0.025613381232555063,0.04055117593889868,0.021249369774222482,-0.004416633614505307,0.0077580025204054565,0.1001480095216456,0.0002960007332735897,-0.03633923323954112,0.011785641318588723,0.03397318698387385,-0.01716357643355317,0.003073083902922669,0.02903950629949442,-0.00551083284274805,-0.03989992319798414,0.015648017361570968,-0.0044147191311809395,0.007905829785091113,0.0012193159609049176,0.00411601445986158,-0.0009213934266572672,0.0009013173692524667,0.03480262425848707
lr_1e-5-epochs_3-fold_0,0.002771324703250798,-0.011107277569071553,0.013139230043868062,0.07955324403908479,0.022557773017870663,-0.008722411909836181,0.016831280451647928,0.07036668671390532,0.024282157642196434,-0.009839896980384675,0.01048630152356467,0.009576221309072533,-0.02840458890739426,-0.009493854822799542,0.034330183506665134,0.006117973828885631,-0.0247877988278475,0.029588026231960322,-0.007686005420085086,-0.04230978562443272,0.010375061349501112,-0.021036533028122063,0.019426091399633007,0.015178997794287958,0.054655849578424606
lr_5e-6-epochs_5-fold_0,-0.006886068629849285,-0.017888608936119682,0.015538118933402508,0.06521213794722712,0.020954380130565088,-0.022271980739750143,0.010333800732793157,0.00923999181430352,0.02644405576829185,0.03178336871968531,-0.008648158805195266,-0.0013442663372134126,-0.006399085228474417,-0.005809437345335058,0.012007285073790173,-0.011987399361458588,-0.02508386040570028,0.01708441479286041,0.0021266281809573856,-0.02255399873106923,-0.005993957038375697,-0.017485804111156317,0.017261067875038668,0.008374036818427624,-0.00857324313633065
lr_2e-5-epochs_2-fold_0,0.04832541096533552,-0.01717204833384138,0.027350342114716104,0.0695547927783929,0.04239835753129166,-0.0006262384395979119,0.026802892671417774,0.12897270014849158,0.009348225565093822,-0.045368346979105544,0.006467408757498684,0.033634590445572356,-0.019605987702786758,-0.0012409052195180917,0.03483732948113599,-0.00989224070260964,-0.04512001245913593,0.017190928661662212,-0.02543009953392223,0.010924831010665818,0.009991321776254048,0.01330433734066536,0.011603531952935262,0.003942494950628675,0.04912285068011546
lr_3e-5-epochs_1-fold_0,0.03213084951562635,-0.01903197243386486,0.018249904195239443,0.0608715334193972,0.028827646850221458,-0.011306473420883282,0.01485548756736293,0.0928576816583893,0.0033000465134312594,-0.041321785876813254,-0.009496436740215214,0.024491646955276437,-0.030614813098846876,0.004784110751580044,0.01906172117027654,0.005880863104845317,-0.012088092289195525,0.00935739667035041,0.005868160654852395,-0.0024174134765944716,-0.016302195800040636,0.005718822393265881,0.012070800269372725,0.014626739672725797,0.029988357926599443
lr_2e-5-epochs_3-fold_0,0.07720961732642673,-0.02069658916004888,0.025067699262600725,0.13980545332656236,0.06814518571381549,-0.007603409393244462,0.07261711313820358,0.23007004465388037,0.052537672340130605,-0.06366930360031044,0.01981618480054704,0.0012568238035308833,-0.0491422882833236,-0.05136687583641846,0.07925179843692506,-0.04076472662731766,-0.08967982168170825,0.034376014386006716,-0.054030154319944484,-0.008886346227891929,0.010644257529324998,0.021587103103607695,0.0489578215394134,0.0016181024213270633,0.10890438619427104
lr_1e-5-epochs_5-fold_0,0.013829261874558867,-0.01926518023990713,0.013457354631338233,0.15876078898254725,0.04222087725155929,-0.03047500841736585,0.047126697365482105,0.11951041445793587,0.053920445288053155,-0.020399677765184275,0.02299871831918675,0.028045396808700173,-0.04061135584245966,-0.01664924307124886,0.061267443075220945,0.016979103279166127,-0.05112031387584237,0.06740123329777388,-0.041636953500172505,-0.04927666690654074,0.022550912195009747,-0.0400263085333453,0.03715804441806658,0.02926158983899507,0.10603041889177253
lr_3e-5-epochs_2-fold_0,0.02614253777325442,-0.005668115301623353,-0.010210801606372239,0.01484342380113483,-0.012557481391402772,0.03128714099607754,0.020080841036713787,0.12192985399859756,-0.004000834812388324,-0.04961347154789991,-0.002286210486200622,0.009450158772792884,-0.028202714701732242,0.0038299231644162283,0.03432096394205837,0.02384478269098186,0.01690877608097284,0.011456176128794586,-0.0003322144227396878,-0.05297017193032379,0.01192667175334266,0.02307853093653977,0.007685979765455668,0.005142455394330756,0.10589514945357655
lr_5e-5-epochs_1-fold_0,0.015915024883162564,0.011882404182950092,0.009121882226462161,0.00551609882445086,0.0009694342675909629,0.013981764409495242,0.013594822942083867,0.06991436292450608,-0.0014525472790324486,-0.01633621949803243,-0.005571971632358044,0.0203264646876942,-0.05564447019030718,0.009476098210224918,0.012022021954767455,0.0011497135947811422,-0.0027421075744064683,0.025701966914834874,-0.0011014206733404412,-0.023232898928026303,-0.011548640114607534,0.0037400818646632222,-0.0025579801298617234,0.028206343985301113,0.06287547586703761
lr_3e-5-epochs_3-fold_0,0.012332748691220025,0.014313199999312812,0.007876202109315982,0.002002748106013604,-0.010976326623001085,0.03456313105920676,0.002418666933881905,0.07422143874279832,-0.0008535262333235123,-0.030879808713036427,0.004593077229515524,0.010151843761264514,-0.0519727002198152,0.012204479048078132,0.01486275785802413,0.0036873655630683816,-0.00463805620735129,0.01942134527601063,-0.006485761795633316,-0.04008843610522908,0.003780123864496082,0.02536081507657261,-0.0011251610100729767,0.016866658501545104,0.08328448762276064
lr_2e-5-epochs_5-fold_0,0.11644394530726615,-0.03216821173343036,0.03560299213447781,0.14527366185516483,0.04397834271925946,0.012744359611837097,0.028683842169070446,0.2840820847904416,-0.026024374434323976,-0.15361143846202324,0.05654616979296135,0.10392399810383131,-0.03512388770519358,-0.0009991697503641658,0.055921023522891945,0.00014202072638651138,-0.046886919286233446,0.030823597434095525,-0.04164558907206313,-0.005628425359613764,-1.8732410382259895e-05,0.04378966550488263,0.04148010335328834,0.0029277579604645963,0.15874539865980425
lr_5e-5-epochs_2-fold_0,0.020494796409331537,0.020982625814567515,0.0014842582200153087,0.0011081588660296817,-0.012916062798133284,0.04256843120437381,0.01893421105742083,0.11282438908247294,-0.00754435644184581,-0.04349097961243015,0.0036975790365828044,0.01883348264252386,-0.07940210890477227,0.007973639354775,0.02225657710116422,0.010874630712395748,-0.0007281568100485958,0.035260844816402834,-0.006962109148564891,-0.04942234426862152,0.0001458111727753661,0.023514366528523373,-0.002514351185365176,0.03326319811939668,0.11282600163299336
lr_1e-6-epochs_1-fold_1,-0.011052120723991728,-0.005426711306652364,0.014557280785443952,0.020823304932910264,0.011280252261422872,-0.006922528274858444,0.0008142215501876355,-0.013905072288725857,0.007601107926295296,0.042900001727002784,-0.012225456194695778,-0.019824302510061727,-0.002155522747790585,-0.003231422818727171,-0.0027300624479714157,-0.011853587635769842,-0.00999565139828358,0.007037866443085781,0.008030998489298686,-0.013329931465243128,-0.0011790649286817045,-0.01575169679522153,0.009843619315014672,0.00275953735942344,-0.03169903553130896
lr_5e-5-epochs_3-fold_0,0.0009458596260830144,0.0014370547982702582,0.0013931187447450185,-0.0007522531620768248,-0.0009156551253796914,0.00279029341095751,0.0014267208959271335,0.009964497627989554,0.00021315754440201867,-0.00412507736406261,6.88264199922993e-05,0.0016961321111736395,-0.009315395799607907,0.0006520327683802427,0.0013096721301827402,-0.0002936240864117172,0.00036012242497123506,0.003677798232241535,-6.281527445518745e-05,-0.0041258173788152825,-1.5841658797318293e-05,0.0018940161471237772,0.00026065904084712245,0.0031868829687796384,0.010995090874915191
lr_3e-5-epochs_5-fold_0,0.020887459260359474,0.021224412518650135,0.009584443899476323,-0.014522287943613472,-0.0086038616755484,0.03501408746441675,0.008402215883352477,0.07804986010144752,-0.017203455009866774,-0.05084772696011481,0.023967522474697727,0.0233049193191652,-0.07097015698690627,-0.0018697776015199445,0.005421428332307966,0.007531458195714047,0.004720221553541505,0.019893784334838276,0.0010354728693071687,-0.02835762180805125,0.0014499962627182311,0.015570360848042189,-0.02313888977274401,0.03139412187835945,0.10634961109604515
lr_1e-6-epochs_2-fold_1,-0.01105845330174871,-0.005555275790257738,0.01441872782841688,0.021638363719810233,0.01133142386947346,-0.0065201311934171835,0.0004404188469962551,-0.012438249588052184,0.008142131833984628,0.04273760257346708,-0.012096292040500901,-0.018950220095160404,-0.0023019186844255757,-0.003051218754303097,-0.002466603948161726,-0.01150631277507291,-0.010377432962695915,0.007011688132782713,0.008339765598045681,-0.014221314617907514,-0.0012106638916208677,-0.015710720805766992,0.010383290312377112,0.002619635409839333,-0.03033141942823205
lr_2e-6-epochs_1-fold_1,0.006606686211795193,-0.0009988385576299458,0.019653961548388256,0.013052798116805183,0.0047639161101981865,-0.0001139720025249507,-0.0016171580044860524,0.00802268271754645,0.0011384125838536487,0.01912842734638317,-0.013966048738812539,-0.016801837256549993,-0.01391782890284749,0.00034399877550745245,0.002110781756679842,-0.006031522731446266,-0.001044824649039912,0.00531329780172139,0.010390490814356992,-0.010365793046085816,-0.00023722170947044384,-0.011890268614167908,0.00027453017416614834,0.012118302683114092,-0.0061809227520929115
lr_1e-6-epochs_3-fold_1,-0.01072967292668921,-0.005353327556758497,0.014227066469852504,0.02201694181947532,0.011434983029955582,-0.006274846159421703,0.0004773848783888721,-0.011131404028396427,0.00837576779611479,0.0420549897673776,-0.012098008679758132,-0.018357604134110465,-0.00283983141859723,-0.002660643098620308,-0.0020199677060289264,-0.011373625681553408,-0.01082502994671129,0.007166292443224405,0.008709458042197147,-0.014945569662053683,-0.0012579422907302738,-0.015574767283738425,0.01053139735993503,0.002830960993000301,-0.028994249834384776
lr_5e-5-epochs_5-fold_0,0.02321122865154174,0.009700370771922893,0.010702545001784091,0.011755736243744295,0.0017702500970135898,0.024705252401207252,0.014760787687003755,0.07663722498575849,-0.0029563607569962802,-0.022023282627008613,-0.0053546918956085,0.018753970518039127,-0.055709617261720426,0.010735820381199364,0.014646868560427266,0.0026797337763225706,-0.0060669299169533964,0.02168891037553217,-0.004662025820927854,-0.02827412188838594,-0.003918039922395415,0.009203340474437887,-0.0015207383564848267,0.02172235757507888,0.0757462813180174
lr_2e-6-epochs_2-fold_1,0.006123498327019107,-0.0005650725122151763,0.02031266025635275,0.011549960611491297,0.00428626082482118,0.004222964299525352,-0.000826984159686372,0.017294518339469846,0.002895650113995242,0.016993325970904204,-0.013554825599390705,-0.016958334352391365,-0.020339685574635776,0.0021480614696386562,0.002727419007031195,-0.006671908321768054,0.002443895567621534,0.005011485323287077,0.009728938834575228,-0.014767440072480625,-0.0014513255992387294,-0.009136837853988743,-0.0013706872258177107,0.016601919730044656,0.0039272572258686606
lr_5e-6-epochs_1-fold_1,0.014443313284158793,0.013127635291764063,0.01598529402030442,0.018020524031705957,0.0050476581067963044,0.009089834685247974,-2.2239158652681177e-05,0.029913706028763264,-0.0008779968107413777,0.009500036356974117,-0.009203217693415507,-0.020817159311827517,-0.03196573689945223,0.010094796055669255,0.014798782767259256,-0.0005954911492181943,-0.005994480905097502,0.016002858103571035,0.007661556079807869,-0.02568580874093832,-0.0011451321953560162,-0.004076551816404692,-0.0051083203949066625,0.018739985194556188,0.040457850179055635
lr_2e-6-epochs_3-fold_1,0.007149582225352798,-0.0005459042905557963,0.020406406290960494,0.011827238305186916,0.005034550003968404,0.0044866799404028,-0.0006193804152745967,0.0211675251156875,0.003672719876736839,0.016417388815808294,-0.013839264279273062,-0.01692647625295976,-0.020997242362502642,0.0020551528030739747,0.0028543099160397048,-0.0065530068848877725,0.003318434602367199,0.005371675547419323,0.008932128390297202,-0.014955379629544891,-0.0017367908850748686,-0.009222085956591339,-0.001289096608307816,0.01667851580730169,0.005657312838465265
lr_1e-6-epochs_5-fold_1,-0.008696646689420176,-0.0027792256659128203,0.01418857324403707,0.021917851544915448,0.010812592834380212,-0.005803138645886925,-0.0017165673358947777,-0.005687162972036717,0.00821110125394514,0.040334987021642156,-0.01229395781684039,-0.017925926069850776,-0.0045328618404008696,-0.0013627877568464562,-0.0011335223411246802,-0.010551146156991537,-0.010784827693082349,0.007670900114798364,0.009542557909715265,-0.01531668349061749,-0.002269747374273267,-0.014840856966376322,0.010235957418305935,0.004960515449146376,-0.023258820241927866
lr_5e-6-epochs_2-fold_1,0.006542282171236762,0.0027227091348445663,0.01097430462386686,0.028651924799122513,0.006385470701412093,0.010736426962638672,-0.0005882212561572971,0.030369563157705337,0.00894663936509939,0.008678963227092724,-0.015877979971302993,-0.019256964129187436,-0.018183394371332016,0.0009773674619646601,0.01490942349892165,-0.0019827953342211814,0.0051264047518962165,0.02303042505990804,0.0040791836682970845,-0.02966149032371153,0.004170266145592644,-0.007764188435628136,0.008920958745722692,0.012752878725648693,0.033480655451393414
lr_1e-5-epochs_1-fold_1,-0.0012468469044148588,-0.010997479853465376,0.01435681568535742,0.041546172910331226,0.016494953283644167,-0.00043837238959882024,0.0023158725987601826,0.03919857235419308,0.01561477116799544,0.01320243549248801,-0.010680477005175762,-0.00043677418364898265,-0.017660439868879312,-0.007378666858171674,0.01459730228576323,0.0011083726729892928,-0.008739180930286944,0.020024413200956014,0.010101178742738026,-0.03137376368688977,0.00441035759746389,-0.024346138918362424,0.020664015022829198,0.01354226782984075,0.03145318798733928
lr_5e-6-epochs_3-fold_1,0.008159718697323208,-0.00212042062848641,0.009391595758588448,0.048812383350310615,0.013889644789011482,-0.0013828637626671384,0.008678521715906034,0.02985292904827616,0.01438842786802926,0.026435871840113426,-0.023368123904700073,-0.007796871019462726,-0.016658574506403147,-0.0038271638908440753,0.01616077189249176,-0.0022363644481284716,-0.006608527684237234,0.02178609050752974,0.0038325928206201024,-0.022360722233069036,-0.003323842535219128,-0.01384450663284835,0.015214682655350014,0.013893714002626664,0.018258636321063667
lr_1e-5-epochs_2-fold_1,0.005248574767697137,-0.011215572164907168,0.013070080198929124,0.053557267914841465,0.021075155525826568,-0.0016332256957201955,0.010525974655489621,0.04509362973038274,0.02140766617010019,0.01151223049535673,-0.010264936184223205,-0.0005831762666071113,-0.02221395096608731,-0.015510845119817207,0.02166162451349084,0.001150730938278671,-0.017017737213472172,0.024299054550950695,0.00713613634687466,-0.03306901137153813,0.0045343496451741,-0.020775812620933625,0.018350917516943475,0.012920432619889068,0.033655218322642164
lr_2e-6-epochs_5-fold_1,0.0085525442999048,-0.00192017865451982,0.021607104394449565,0.010456027653399718,0.004692080680213919,0.006305709962100119,0.00042560302414361336,0.022923389625223157,0.0027652251672169673,0.0140070052339106,-0.011627532038237432,-0.016492903850496236,-0.023945149777668397,0.0035808704325009026,0.004826771463024306,-0.006255167080790023,0.0027294495527635386,0.006559714876417053,0.007891959358323241,-0.01613471424471805,-0.0016284215538709319,-0.007126869566941051,-0.0030685444394103483,0.018164813659427265,0.011490979634671833
lr_2e-5-epochs_1-fold_1,0.038211423306623506,-0.0036557272796064327,0.010777370536815323,-0.007090130915722165,-0.01645058695065317,0.03805089624197614,0.005325325251972875,0.11767986070163854,-0.0045821972459003865,-0.04090310400574461,0.016512244106595946,0.013978486012519569,-0.02679795634223616,0.003788729004558682,0.04303512609323608,0.03505450645995955,-0.01521017524662973,0.014528901195148113,0.00212421631206354,-0.05570009195104392,0.031374638557675354,-0.0026241397546999615,-0.013139825289449018,0.012568295340001477,0.13353524138617934
lr_1e-5-epochs_3-fold_1,-0.0021520214406565074,-0.016762240850908244,0.01167128821491962,0.07833175874149012,0.028872234259346374,-0.004612682141462149,0.016936076007839033,0.0576409368551198,0.03301514048329922,0.019169289382042494,-0.012421908695395896,-0.0007073898886256739,-0.026819984093873987,-0.03045766867205466,0.0218423917802839,-0.008545977412991115,-0.02475156682201829,0.025852974655197574,0.006039019595121073,-0.037636469732002686,0.007405313765609885,-0.025437013939413732,0.029839247186222443,0.022436193591503076,0.03614335506149766
lr_5e-6-epochs_5-fold_1,0.007410970164970002,-0.007186472705564996,0.011777233290931294,0.05281471083915484,0.01430991353342354,-0.0026877433204925737,0.00906502030613905,0.02725069690601481,0.019457918123093075,0.026362509307577657,-0.021816903995304022,-0.01268158999942371,-0.015042421804051386,-0.004878926718701653,0.018192332322557674,-0.003899697378066529,-0.007364102061729931,0.023569668428619676,0.0017303348280029813,-0.025030100908197163,-0.00044650237953720385,-0.016486012153699568,0.019197632505500422,0.011958617856522427,0.018654162102049062
lr_2e-5-epochs_2-fold_1,0.0028290106067503686,-0.0006400391491621082,0.007420143694272922,0.03283381665585428,-0.005688490118318722,0.024967682155769146,0.0016854550377482145,0.11080682481565322,0.0018916048321053105,-0.03285324747786973,0.012110711796073781,0.009264540788816285,-0.03470397266239919,-0.015624330748969848,0.04452371490066706,0.021147426502394782,-0.012856682368700684,0.012397128203723379,0.018549350378844448,-0.05707541581290733,0.01361272022735083,0.006809744495487202,-0.0010221571482031781,0.017006109058746968,0.13154404768002131
lr_3e-5-epochs_1-fold_1,0.008652288591667607,0.008270718820367878,0.0022404679140487706,0.00019513238947062964,-0.003987501089723233,0.015524919598047344,0.0069837364587199795,0.052582493540242005,7.225844184888488e-05,-0.016730310576040637,-0.000449718938251056,0.008639545174389961,-0.030338410147844837,0.0060785897374626965,0.00921686941698613,0.004310630927751459,-0.00037569506448649107,0.01370610948867657,-0.002334538447164243,-0.02420614602091606,-0.001607569391010484,0.010423340912274915,-0.0017745591262696373,0.013045783247166176,0.05285946309189259
lr_2e-5-epochs_3-fold_1,-0.015714136919810186,-0.016732351605024565,0.04243111859366994,-0.0026424873714630554,-0.05422924290395845,0.027481641010754555,0.03072795564309204,0.1948373999468321,0.01214773825974905,-0.06508910306514856,0.03586466693039782,0.009574351443190559,-0.07740921217635853,-0.026864090597430598,0.054735855132134636,0.06395194341635645,-0.04696442173621723,-0.0028647595614817237,0.006073722535945271,-0.0920905659182487,0.025573419314390642,0.02280209651383383,0.019829676774321528,0.02007876645419643,0.21096948946948504
lr_1e-5-epochs_5-fold_1,0.010984435830000097,-0.02504301596039988,0.00825310154324796,0.1412973115606027,0.04790389872788071,-0.007931013584331632,0.036843852499297204,0.0605946077819505,0.056810346493469464,-0.013230648940490928,-0.011995601856714283,0.0008837748398321495,-0.043886129419507175,-0.040046263798418025,0.04426668830316899,0.00929458342216888,-0.029821240379860826,0.03654382163422318,0.004419562671434262,-0.048591357588023895,0.00622896726578398,-0.038900683909399214,0.03680935715741907,0.038792939856862343,0.06495547576141485
lr_3e-5-epochs_2-fold_1,0.019547498777924253,0.02451182572761422,0.004530303309524438,0.007950084856280515,-0.012425014415508836,0.041033095008404796,0.014357884910134884,0.1091548305489383,-0.003741069310938584,-0.028937777908330967,0.002080876207472734,0.029018633500745347,-0.07494914081068893,0.012082834939450726,0.020539871411003364,0.0067788482956137935,-0.0010872969824786004,0.0398222227072018,-0.008995601599132347,-0.05276694120046578,-0.0032002397524756657,0.021071698680523648,-0.003678692197962373,0.03030238778984337,0.11881588485411473
lr_5e-5-epochs_1-fold_1,0.026723106620302882,0.013887983626333013,0.00624954402544579,-0.014482634003927993,-0.017389148183996863,0.03342322306410892,0.009611966451415297,0.07182155110044519,-0.001723548513084322,-0.029560637309340908,0.006518245537816803,0.007418130020190215,-0.04447668510559436,0.01061145911088229,0.01560214413493737,0.014992093695187813,-0.0001559559028269324,0.011345592613173382,-0.0014737464850075356,-0.02425893734999581,0.010147815674587576,0.017595112631021766,-0.006585959075524466,0.009518542439492846,0.10383598710277951
lr_3e-5-epochs_3-fold_1,0.02600604143998837,0.025843181442841014,0.006987056700378086,0.017670001348492986,-0.0041454020630839845,0.03440487072420645,0.016980785525543,0.10908799153066329,-0.00448693219499886,-0.021077144032989933,0.0001453850489844844,0.04730672516283876,-0.08922080814872557,0.013339070636442534,0.016926959827403838,0.0003525045229490384,-0.0010253127433580433,0.04819996727746759,-0.013255943926749815,-0.04623159530180176,-0.009377057496748342,0.012662853056153391,-0.005704797163911632,0.038305407273091875,0.11452921244438669
lr_2e-5-epochs_5-fold_1,0.05515658562076914,0.04316784838038107,-0.0029269709174973074,0.11237172948173665,0.03901900906533956,0.09072944666075008,0.005698247344952471,0.21517978633410312,-0.013208507459410854,-0.0996126177183908,0.03958546737169221,-0.033501312324613355,-0.027780658875761467,-0.14562594470161955,0.1932217902083126,0.05454095080760154,-0.05976338695679591,0.09463833385458567,-0.07498138682438898,-0.06855453887621456,0.014389920141247917,-0.026254751696540145,0.03775512380798749,0.029383319233757515,0.1322170814360067
lr_5e-5-epochs_2-fold_1,0.014414569167063305,0.014640344593194868,0.006310132666983224,0.0005033929193288921,-0.005170955692002357,0.024671953914665798,0.013897802217148718,0.07518338939578353,-0.0034034789218077735,-0.02569011275215689,-0.00279655785599458,0.01770625489102706,-0.05698177331328456,0.00875669269395425,0.013179394803554857,0.00288494219062675,-0.0005181539910797537,0.028016530796296152,-0.004215177507004616,-0.03295802000603203,-0.005001684459531419,0.01249500752228194,-0.001478778713410062,0.025298286110081235,0.08016078205760005
lr_1e-6-epochs_1-fold_2,-0.014896671956207854,-0.006682786860420868,0.013248328895178112,0.022265982702767168,0.011892522820676658,-0.0069972004322549535,0.0019377701774324187,-0.01729423406303425,0.01051926460106871,0.04513341176163135,-0.012618292050990576,-0.018980034227854752,-0.0005193602542999146,-0.00553954418778696,-0.002803712662632811,-0.012822919277481547,-0.010205319863006483,0.006039345709020544,0.007578614292322187,-0.013553894548559379,-0.0004312673796336708,-0.016728470646756907,0.010878598634960025,0.00018680079070698598,-0.03515592178059188
lr_5e-5-epochs_3-fold_1,0.005821029874773552,0.012524054463691536,0.007833189562247218,-0.012279180854114103,-0.009070564363764088,0.022245539820552603,0.009415415880429684,0.06242084463748565,-0.004315896591713537,-0.031653127211657583,0.006595697890097074,0.006361524266642953,-0.05617946320103143,0.009504030144398302,0.01019156425291272,0.00446134059790981,0.0037810478260449257,0.022743691397388494,-0.009500473839521243,-0.03323231099653759,0.002206688683353863,0.014636585325807486,-0.00041646337317693786,0.025965374966289076,0.06805500088690694
lr_3e-5-epochs_5-fold_1,0.109844562276739,0.018985806055469706,0.027833439926812635,-0.00805889456983332,-0.01939102083964938,0.04887931990289068,0.04030219179737775,0.17479925854338432,-0.04928399055146989,-0.056845060003990436,0.027874152418963145,0.06359884605152775,-0.11412829896664985,0.027926851203240493,0.03767121151192702,0.022283562591879233,-0.011104575591033117,0.04181905533692734,-0.016404883152667093,-0.022949064204663038,0.00671144959703843,0.0337756972922548,-0.021598731814475008,0.05326725363713217,0.1702465785825117
lr_1e-6-epochs_2-fold_2,-0.014992427912710682,-0.00644605078861148,0.012878384061936355,0.02317043335065121,0.011861955265929269,-0.006866862145252242,0.0013512766092451075,-0.015948254854505628,0.011337084466213492,0.04524935131992427,-0.012698991109955773,-0.0179755300073276,-0.0008493346260837601,-0.00564233762649148,-0.0024241901717734276,-0.012814716624959881,-0.010921899151508482,0.006154541030139432,0.008209119772714024,-0.013871968137002921,-0.0004418228685253182,-0.016842455851008048,0.011556104447562493,0.0001205200167515479,-0.03388384159808954
lr_2e-6-epochs_1-fold_2,-0.01697056848189628,-0.005319239880148754,0.01126322659061557,0.026414108824434228,0.0118815429719389,-0.006561314773171399,0.00157727260397772,-0.013657024950658382,0.013309734060548443,0.046284242401174194,-0.012053681668508455,-0.01616421225511818,-0.00168350283296879,-0.005997906795471193,-0.001796646823684691,-0.012725833365017526,-0.012330065517304931,0.007031688807617471,0.009486394747568336,-0.01628400506180251,-0.0005960565382866902,-0.018946424506638648,0.01327998699195541,0.0007494673321512728,-0.02964038465083869
lr_1e-6-epochs_3-fold_2,-0.015010345999504496,-0.005504484232201729,0.012017225456973294,0.02422970733082206,0.01194863757047241,-0.006840589833019578,0.0015423720459247167,-0.014786412988194985,0.011560767886408585,0.04515426981010082,-0.012947333259558666,-0.01724883977221615,-0.0012399447492694872,-0.005269085536318098,-0.0023378402626519036,-0.01270856599181424,-0.011329246233646598,0.00624113722979193,0.008611784289874455,-0.014410257887246175,-0.00042726675141628503,-0.017050828588049814,0.012131383057903997,0.0003138507963762584,-0.03225106677606469
lr_5e-5-epochs_5-fold_1,0.015832309328196733,0.017916973115380104,0.008053625233538666,-0.006241366572016916,-0.01221313270169535,0.026499201939274707,0.012645321508459356,0.08188526044612082,-0.004581505607888891,-0.03555895441471815,0.0016926915159075015,0.005949766086140263,-0.05845839800096185,0.01255932044645996,0.01666520382952971,0.005419146241738519,0.0035604938930823343,0.02482530751185287,-0.006813717136960015,-0.03695465992887924,-0.00506092101958314,0.020589519602266716,-0.003381650457542058,0.030353315463629515,0.08127083222388005
lr_2e-6-epochs_2-fold_2,-0.01671883597675141,-0.0047658348239571465,0.011202909078757898,0.028174985620390905,0.012563250236325756,-0.006271663143326529,0.0016391527763847788,-0.009399850206503536,0.015199773715751954,0.04422311191687419,-0.011257095815335148,-0.014076490310714765,-0.003149234852785483,-0.004448877432520714,3.1278897732740455e-05,-0.01156661729758863,-0.014014760162094608,0.007493293548279822,0.009859320394028405,-0.018267910308581183,-0.0009194507695285629,-0.020141162624877883,0.014024350355322136,0.0010863240868850123,-0.024334262373630466
lr_5e-6-epochs_1-fold_2,-0.021680595003698372,-0.00450399265158335,0.011978199450280398,0.02624507998361284,0.011774309209977343,-0.0056134024573535396,0.00693648232019687,0.0011015920829765054,0.021957121812578625,0.040710807677523185,-0.005124745005046429,-0.012347945063924826,-0.008231417901031251,-0.0031195593499436145,0.0045920205138832975,-0.009750340761830687,-0.01593593368942411,0.014696247168733951,0.008788743729840795,-0.03225678072147182,0.0014982190064468468,-0.021185614664210674,0.012099965744662893,0.008064674639365138,-0.0011605415250810199
lr_2e-6-epochs_3-fold_2,-0.016267428245148798,-0.004562037096314717,0.011220997934627098,0.029412230506181625,0.013028240587827257,-0.006427182766458469,0.001816604571571874,-0.006405008154748894,0.01632277756031614,0.04426545486707856,-0.010728794139827632,-0.012709523427291211,-0.004377278830352388,-0.0035252977317027138,0.0013660859585311826,-0.010848876013514405,-0.015024462900990876,0.007682308307249084,0.009970391147430811,-0.01960632567620803,-0.000815814434680177,-0.020886043148216682,0.014013522068532364,0.001739578624195865,-0.02131827937473153
lr_1e-6-epochs_5-fold_2,-0.014839324439981845,-0.004850736421433258,0.011682606718378721,0.02591126979279826,0.012364369048115158,-0.006784772224366198,0.0011616022093103148,-0.012254574412338542,0.012598820998871193,0.04458846689966877,-0.012877253752431999,-0.016131628905161413,-0.0019191434970102963,-0.004451353758037079,-0.0014384772647968761,-0.011888144751723785,-0.012372501978046298,0.006547883926691463,0.009064194447791336,-0.015625876138377168,-0.0004485240090937605,-0.01770071936243344,0.012675969676634417,0.0003408081165817336,-0.029643236836979028
lr_5e-6-epochs_2-fold_2,-0.023488984992840883,-0.006275505019999156,0.011716499431736437,0.027907047819518336,0.01227415399477349,-0.007900007860265483,0.008302892406649276,0.0023605226033660367,0.024137668695945226,0.0382546188150177,-0.0030206851816066264,-0.013041694874147743,-0.007318057162016979,-0.00479874386399806,0.005285465691056578,-0.012410183505301844,-0.01698148457036882,0.015030011727207778,0.007955467162397926,-0.03386734129623653,0.0013243082504735147,-0.018240424848411294,0.014526559238803593,0.00660731813810403,-0.0003098377298367004
lr_1e-5-epochs_1-fold_2,-0.008340609999215206,-0.011355910730559768,0.007863645775994622,0.060438957889483926,0.02820985998041344,0.002557390343727197,0.009332747199351179,0.034136305640034184,0.021393745172152718,0.03747361823523961,-0.0030223546092589234,0.007558752103210611,-0.011047891508793982,-0.006920853562828472,0.02006137064634819,-0.010367681193008063,-0.025935089017332717,0.02140801229404239,0.007484572882603461,-0.021687747920340932,-4.699482984170259e-05,-0.022055275884913527,0.01788676295904781,0.003389039806710347,0.013342184301339221
lr_5e-6-epochs_3-fold_2,-0.025374885777615066,-0.008165394547183935,0.011477794980340452,0.03286940052121132,0.014875116561722048,-0.01060046192941371,0.009328261149383248,0.003158561986359646,0.027982768609495244,0.038742202226422065,-0.0025228286501841864,-0.012546897734748041,-0.007807063564206686,-0.005947835013830285,0.006160156873684273,-0.014263955172968634,-0.01893854994480006,0.0159296816471326,0.0075552580479923736,-0.03559099660336275,0.0006408154247266966,-0.018418067039345357,0.016124442368596746,0.00703484508692596,-0.0009381414737443485
lr_1e-5-epochs_2-fold_2,-0.007843204703684666,-0.007489117024995745,0.009724878391239008,0.04987989894263357,0.023674205266661322,-0.0045842024843181,0.014311187486444435,0.052089726355965656,0.024603606594638946,0.02842906837906203,-0.0018989518993907835,0.011911533277894695,-0.02168224301566001,-0.006947352713174721,0.029627141994881912,-0.006189359433503882,-0.02435771319628669,0.02420656429865656,0.007748885035450291,-0.03270534664843301,-0.0016651016684811606,-0.018304703034586325,0.01700549225246114,0.008720845666043867,0.03644852015089894
lr_2e-6-epochs_5-fold_2,-0.01525792845508721,-0.004685149904972756,0.011017485226375287,0.03149215162361648,0.013842819855755086,-0.006438456853468242,0.0019310020327587012,-0.004450255927619979,0.017257982310539415,0.04438861521907962,-0.010584806123151656,-0.012032156856596062,-0.00522383710913669,-0.0029566589505570272,0.0025881057291939464,-0.01101315782076446,-0.0160822638759825,0.008058435235822455,0.009710454987590674,-0.020260053126080715,-0.0010093198840180162,-0.02071429434167951,0.014624333575119055,0.0022348871483385967,-0.019701987015872183
lr_5e-5-epochs_1-fold_2,0.015507374396131292,0.021756398769228455,0.0017373370457432198,0.009243288743835397,-0.010493656823527934,0.03253496953986325,0.00687704969877753,0.08890429843401042,-0.0006932618470066311,-0.024936203813512935,0.0013264940342932172,0.020085770573349246,-0.05211173290450705,0.01246389027359362,0.015914336276818097,0.008198012159610298,-0.004519806191786273,0.029746252977199048,-0.006820086983737353,-0.04317289181170058,-0.005292400655200119,0.016631789946715457,-0.0037049099547080237,0.023882003104929318,0.09391600348248183
lr_3e-5-epochs_1-fold_2,0.009758425014366967,-0.012333263529134244,0.03045959995878537,0.09534412632414703,0.07209378303842272,-0.007418313129591637,0.024024374445479117,0.10902584291725181,0.038916773768729804,-0.01678920109332337,-0.08028958049255877,-0.005586170910610231,-0.04495519320609549,-0.0034873174446786964,0.0014006737902469565,-0.02654921361113954,-0.011565621047989878,0.03352025141849125,-0.006009355536343563,-0.005612945845328774,-0.03232249379567078,-0.005030859213362795,0.0056296231977927096,0.02336506047343964,-0.004869427075493932
lr_3e-5-epochs_2-fold_2,0.025121966338901684,0.016225555657851963,-0.007193623645195159,0.008350297007998607,0.007438356104093355,0.03482704307941256,0.019157446650764274,0.13752579312356505,-0.0017335055943012276,-0.051940552520180205,-0.008471660254348673,0.0019156410770437156,-0.051379089043192216,0.003627875398146953,0.01139446803065618,0.013062395655993844,9.877250034068327e-05,0.016506983757271276,-0.008890648514119994,-0.03650693763831698,0.002404001252425375,0.024485140368207904,0.015826193737558666,0.010986331293463002,0.09284863628060165
lr_3e-5-epochs_3-fold_2,0.01092334753881836,-0.003307032768953805,-0.003439184714274807,-0.002855343992797997,0.005293074246458007,0.023126252391062946,0.02110176276189553,0.1225123694736584,0.022138242157555322,-0.04541651331868285,-0.011114767528014697,-0.003519388359253352,-0.05631023815076708,0.006406254963664431,0.01137235396236053,0.000811911408478796,-0.0025283723045174105,0.023901105389283563,0.0035588446466202055,-0.056474123023608665,0.0003294512929916775,0.01787411606979193,0.013400064891217558,0.014658145206046006,0.0859281389138976
lr_5e-5-epochs_2-fold_2,0.01741535557490653,0.021226898918129136,0.003530185732280239,-0.0046777975597453265,-0.01593052321677413,0.03990549069149508,0.011801666440940158,0.10052535046139195,-0.0027907759346443256,-0.03819116828772442,0.0035743222595983146,0.010429616580963684,-0.06443341233236416,0.012937743651865029,0.023481524982960394,0.009329362055325372,8.642820294999744e-05,0.027811250549841317,-0.006660886967421568,-0.053249383866851775,-0.00019303156261678278,0.02761689993450773,-0.0031254524856736063,0.028568442927907216,0.10973839218235333
lr_1e-6-epochs_1-fold_3,-0.013888900352737796,-0.007021242837471672,0.013898290361454641,0.021761919000896027,0.011937433492355654,-0.007346903342384605,0.0018217013018056022,-0.016563634897406733,0.010111646261171081,0.04427763834702591,-0.012353329430413467,-0.018769051809550786,-0.0008364198714473886,-0.004872532980566033,-0.002793086219786144,-0.012628353637995552,-0.010153314358490427,0.0063068112142009355,0.007726051105688866,-0.013709048993067711,-0.0007137795028287911,-0.016199750097656358,0.010692214010261865,0.00032100054350430417,-0.03500052266584313
lr_5e-5-epochs_3-fold_2,0.013145938262041761,0.014206771803570488,0.0038483171855188602,-0.0030681542869858587,-0.012793929125699322,0.031314390541501154,0.013380111696671696,0.07842769776481273,-0.00348645086761891,-0.03269782102137238,0.003895084165161253,0.012472533598234515,-0.06151633405915155,0.009911841999401731,0.014729361221493577,0.007426118700973276,0.0017664640602344031,0.023748627848640007,-0.005164538960075663,-0.03999388038146258,0.00011682136457223657,0.021264202246394658,-0.002143977862814804,0.0247663125484412,0.09142454793165807
lr_3e-5-epochs_5-fold_2,0.0206636510769599,0.011203933919454595,0.004522409901994419,0.010856627118335616,-0.007542570317893919,0.027344413264012626,0.018641507669587793,0.08201139050712128,-0.009515625517476343,-0.018505597036993397,0.006487595692504985,0.02266071826932812,-0.060845944384450824,0.014416166704976606,0.02008316499995686,0.008094603481916568,-0.0035075105946515716,0.024688236881945675,-0.009138134846817518,-0.03153833989667826,-0.00282345794605458,0.019604444068196714,-0.004388858239202119,0.027923675033579932,0.0940781898597267
lr_2e-5-epochs_5-fold_2,0.03468501215722003,-0.0679034806987362,0.029769951934624683,0.05375980449922185,0.042802782391830656,0.06701669560188446,0.08744716763877682,0.21912197081258591,0.11243321661354773,-0.20142930992822203,0.1709898367907052,0.07264224953790129,-0.11123939573562007,0.0625124251049071,-0.007786387846345789,-0.017893095055814413,-0.12912226984848868,0.111730791082265,-0.09446899562065658,-0.08829433577636268,0.05657592747504671,0.049725319211947366,0.10253132633560237,-0.04182325228604562,0.24858488151209496
lr_1e-6-epochs_2-fold_3,-0.013718537532715814,-0.006659387296908464,0.01359606304648083,0.022442288335000813,0.01178780955325712,-0.007086143903949988,0.001645769357644775,-0.014886158737362478,0.010254049116856744,0.043805496472024905,-0.012432454779224448,-0.01813662711169125,-0.0012760664097661416,-0.004561404468710804,-0.0023665597697355026,-0.0124532676332157,-0.010194342365340066,0.006503195246485886,0.007873107897023586,-0.014206549619327274,-0.0006842798642446328,-0.016502529731098284,0.011224585029223782,0.0005391552391839751,-0.0335810151968497
lr_2e-6-epochs_1-fold_3,-0.016204377500777394,-0.005771592783629355,0.010752898794459786,0.02675924756773072,0.011674051215184306,-0.008023951752913273,0.002072268030997339,-0.013797764487066865,0.012449454736700363,0.04487995931921113,-0.012318282023641405,-0.015121936089791897,-0.0012398984546686549,-0.005754666062407078,-0.0011128142580352194,-0.013115953786498288,-0.011437042279892938,0.007307005572815057,0.008726777905257733,-0.015514193555434994,-0.0009986721473098131,-0.01765480757364917,0.013476855795834944,0.001098914638503398,-0.0307229650387484
lr_2e-6-epochs_2-fold_3,-0.015880961323223187,-0.00529632746115293,0.010782688329184682,0.028937819731969572,0.012421542408538322,-0.007775613472567911,0.0021824437357232445,-0.009840091372929393,0.01395576111325442,0.043972288924541164,-0.011650990992421213,-0.013510682520528847,-0.0024471221897822437,-0.004658866890895389,4.2580394512114467e-05,-0.012067959557963847,-0.012953086299475763,0.007478700671383805,0.009295698164470179,-0.01740987843353434,-0.0009391557104517262,-0.01829373515954487,0.014240054768629044,0.0011165733565064507,-0.026092348333815643
lr_5e-5-epochs_5-fold_2,0.017968356118680556,0.016926695071629583,0.009392711238022468,0.0019440416712668013,-0.013869684712247985,0.03280277978230786,0.010801245870009706,0.09782224977746354,0.00015303073277887996,-0.03404390454560917,0.0058592427056688,0.014834626609807932,-0.06212245274442611,0.013939690658429324,0.02478779174065635,0.010546759670805579,-0.0027390986232014277,0.029886413987414442,-0.00873975477879392,-0.05274319226922685,-0.006247162289115402,0.01383714806267605,-0.007320283862398344,0.03559075735902817,0.09950392091440108
lr_1e-6-epochs_3-fold_3,-0.01359294335293443,-0.006106046948663213,0.013159967253177621,0.02295085844622623,0.011975415961439867,-0.007128399764143125,0.0016190984262576737,-0.013554943474225594,0.010865209309419985,0.0437536241960827,-0.012782523282785589,-0.01782344909116962,-0.001627863262677896,-0.004343229920014667,-0.0020031219952015024,-0.01236478341714677,-0.010490027041529034,0.006688025448836656,0.008184499567276385,-0.014628576591833769,-0.000764864772567942,-0.016590305724277304,0.011615862695745084,0.0008359484709660183,-0.031946516592523407
lr_5e-6-epochs_1-fold_3,-0.014682348395022962,-0.005465802910591493,0.013418257246964351,0.03027188050755849,0.011779699587976563,-0.01019981215903249,0.0048566399008393435,0.005084585608977713,0.015197898285730597,0.03153366679441144,-0.006332603512760452,-0.005285360408296216,-0.0063827263724434615,-0.0019725296399229816,0.005706872609618396,-0.00903518735987454,-0.014094885816861347,0.011080258920891513,0.00840418430092994,-0.0245709996519927,-0.0018804877370385766,-0.017724519060942596,0.013277937165942623,0.004868942531226152,-0.01029268209291252
lr_2e-6-epochs_3-fold_3,-0.015061554721746442,-0.005572992629510909,0.011145159092359243,0.030189546059709953,0.012992977833771645,-0.007644023269388668,0.0025044835194122893,-0.006746209462554933,0.015018891183060245,0.0438339492258454,-0.011132755340329245,-0.01234706694391791,-0.0034243375822304986,-0.0041055615391449455,0.001541883636296944,-0.011748733008716745,-0.01392050114297492,0.007771482940705603,0.009081000880813997,-0.01829075234829851,-0.0011263875576967156,-0.01869978979757206,0.014393414699245438,0.001497248842132732,-0.023406439443549303
lr_1e-6-epochs_5-fold_3,-0.012921293793519953,-0.0054440685551895174,0.012854380627425027,0.02392525998642869,0.012370723527773317,-0.006728827650405784,0.0011353917107185451,-0.011007546359047686,0.011420481533619345,0.04294694616216545,-0.012496305656658468,-0.016468654436590267,-0.0025054093721469974,-0.0032951124533747455,-0.001401549950714727,-0.011390076578272179,-0.011528675709291832,0.006863728540930702,0.008790765031288159,-0.015979330067467937,-0.0012541381009624599,-0.016573054592115395,0.012232431455341659,0.0010970018249000656,-0.029075017040450384
lr_5e-6-epochs_2-fold_3,-0.011947261382135851,-0.007057681037855328,0.014652538816035343,0.031342266576141975,0.012692988610920669,-0.010029529631298302,0.00574698593692825,0.00935260833495841,0.01466099694089649,0.027787461578443473,-0.006202746513946195,-0.004548750758659954,-0.00720845166529503,-0.002502985590023847,0.0065499576756607,-0.009125147526055746,-0.014616097809538623,0.011133834475311917,0.007687959420594616,-0.023709135261431848,-0.0014153362661138212,-0.015606936050768789,0.013246645411378773,0.004880262774043885,-0.007820125375087727
lr_1e-5-epochs_1-fold_3,-0.004320941445142702,-0.020258314305634004,0.003944488269695338,0.09065843477175618,0.030620445671494176,-0.031065662921294614,0.01573636114674389,0.0291051434939607,0.014170602748533998,-0.0050810162623978845,0.016904036787037204,0.03561420496178588,-0.0032408661855901034,0.0006348224644751099,0.02313485818093464,-0.004260982666817862,-0.034622209911558,0.01852291778695094,0.0022836771884182433,-0.011715160419642271,-0.009282987763199302,-0.001685376322293905,0.023935824212745285,-0.003929476122916839,-0.001602233247468011
lr_5e-6-epochs_3-fold_3,-0.010430432224313542,-0.008188216617654821,0.015541946725018765,0.03563062554983572,0.014484375454695018,-0.010732241975559723,0.00723112767589678,0.012714611388353917,0.015323808092695094,0.028201089469853394,-0.007156728776822691,-0.004449442894886051,-0.007332160272470666,-0.0035408221628622106,0.00788879893406782,-0.010190647992542205,-0.01630579453606478,0.011344102401527566,0.006481052694083047,-0.023287222947343117,-0.0018648109908050523,-0.014579280052710268,0.013792858217658568,0.004941096512743743,-0.007688493559082947
lr_2e-6-epochs_5-fold_3,-0.013712433472028687,-0.005519844135216169,0.011042718910777785,0.03212549405628442,0.014012919542608844,-0.007989438963794757,0.00290676198971441,-0.0038255532262693845,0.01582857301536173,0.04354037310239715,-0.010832519933550099,-0.01140975592555973,-0.004381706397599751,-0.00354777566312194,0.00294568300945025,-0.012064431575315894,-0.014910787464890636,0.00817328388328542,0.00837557275369932,-0.01898124167521676,-0.0010672540923259682,-0.018484762590184698,0.014883117923821212,0.0019339727937553361,-0.02111391042125054
lr_1e-5-epochs_2-fold_3,0.007244455435278064,-0.017529122325739947,0.009570408210379248,0.08063820441597085,0.030160826196280074,-0.022333562078588932,0.01671737729051771,0.044138410091781335,0.009286011354454036,-0.015182945819333804,0.014749941006987758,0.030085214197432746,-0.006811619114351147,0.002469962843737742,0.024827979452905963,-0.003312679086822492,-0.03118040822241088,0.017469718885621783,0.00639622595191369,-0.007528483621398038,-0.008123170733616618,0.00010919867540896229,0.025058945897241513,-0.00132724457058404,0.011491312030171848
lr_2e-5-epochs_1-fold_3,-0.013216455170572006,-0.012402066493594724,0.013425236824442775,0.08545238188308932,0.027315579400909576,-0.017446881534247727,0.016981317743258766,0.0838056573173746,0.013840128930548994,-0.008834014819070448,-0.009007533858168307,0.018965312654602565,-0.019827801554066316,0.0017771912583467856,0.026492328007060407,0.001953065373518031,-0.015940873500157528,0.01845356941459446,0.015104098300639121,-0.03850009950518036,-0.010819517228878701,-0.014309499250062509,0.02380629223475192,0.02079107593467347,0.022170735907502483
lr_1e-5-epochs_3-fold_3,0.00044141709398349074,-0.03032466785599804,0.003125584107838036,0.12887336179398107,0.052277493885639625,-0.042218732283260826,0.023356471044376666,0.02950354033378157,0.02821515441132292,-0.008808794661942752,0.03090131041841114,0.0436553986433565,0.007130467723079701,-0.005236126335339429,0.026813466538719195,-0.010414779962848324,-0.052296396537427736,0.015746961560658773,-0.006624725135005086,-0.001338370878859406,-0.006422780508498982,0.0052499947238581575,0.037608203201351956,-0.01486917677816393,-0.011215566216452425
lr_5e-6-epochs_5-fold_3,-0.010186322143731065,-0.009362561537070917,0.01636400111229935,0.042131293803000916,0.0174399395704937,-0.014776908019406829,0.009561130656328479,0.01334541032977401,0.01958417834183479,0.033593952967766266,-0.009459509193643596,-0.005633330730131801,-0.006573636577476551,-0.005101121004278653,0.010626568102426851,-0.012802419368536879,-0.019622186176492168,0.012213629487396209,0.0033649738073918377,-0.023583564082063496,-0.0021772439059310126,-0.014125370316238018,0.0164774769792462,0.005565524778613726,-0.009827643480771987
lr_2e-5-epochs_2-fold_3,0.027252648352345407,-0.020002655618848758,0.02090407048139936,0.08611499078368175,0.024970299430630286,-0.014334732186693856,0.018203047389942262,0.12198547105958431,0.011651838322609298,-0.01759311496720814,0.0037966114821219627,0.03836840778036696,-0.02703899097918097,0.02015139972000743,0.034753184697229864,0.015087568522725338,-0.03823122141321591,0.02293216747581897,0.011343764954581859,-0.022564769789367584,0.006766905057923913,-0.019342499309502034,0.017200905197383373,0.005439347238735414,0.05039617803295087
lr_3e-5-epochs_1-fold_3,0.04480611172043981,-0.008873405341327342,0.02855850918979375,0.029523836881869214,0.005196696917733983,0.011695982865533616,0.004753958684517023,0.14314920969147177,-0.03699750132018996,-0.0730100790924806,0.024468234242852275,0.06274078614455068,-0.05242699139342938,0.023121512656292652,0.03007526805079986,0.026973631574610593,-0.020994250117106122,0.029365692557118246,0.0031855120043742975,-0.02277529237356388,-0.004689526129953804,-0.0036439636525936406,-0.015053417400232643,0.0151564222961546,0.0758724901224558
lr_2e-5-epochs_3-fold_3,0.013553261442478566,-0.01463049306045338,0.017100672160931613,0.08350601052509146,0.02770694589249973,-0.0234406657211785,0.02223733779532942,0.11413862263575479,0.012824909229290377,-0.018794947384885748,-0.003356550071494841,0.04756161779741619,-0.035013190428957376,0.0128146059192535,0.03266266323348039,0.010347761213829038,-0.03449150682652111,0.02155366814974864,0.013365154168685311,-0.03769712172240239,-0.0027636312403499542,-0.012632493341724614,0.016902820184924443,0.015917963537936584,0.05085096766246608
lr_1e-5-epochs_5-fold_3,-0.00012775922772793777,-0.03852189204526458,-0.010798254874837019,0.16199698926283626,0.0639339075146227,-0.04809018033008234,0.028697119922774957,-0.008378541422602623,0.029458971492088957,-0.01921445524349481,0.05831840073385877,0.045344342923947546,0.03535824891263045,-0.002623286737572682,0.027325010759419618,-0.016213491122992415,-0.07117338781674562,0.029595085092712074,-0.028470973108550665,0.0050086748888211975,0.00452890852175851,0.02000404225526551,0.05620202630333995,-0.03152680629043735,-0.02861733208641957
lr_3e-5-epochs_2-fold_3,0.03738696673475287,0.003828958492348336,0.012275957495852252,0.03596918145858845,0.01920701116192032,0.0261587171950181,0.01539539161611663,0.14021422640938905,-0.009351552404428073,-0.01588864421293791,-0.012385714306634422,0.026317869139192904,-0.05152512903062208,0.01181482605365062,0.024669320051321036,0.005264527525711442,-0.015202732176836894,0.018260272297765216,-0.0035895611989371946,-0.0338585407181102,-0.0023100780006047525,0.006311321949897426,-0.0014928560379713074,0.020790139800753553,0.08181575411381975
lr_5e-5-epochs_1-fold_3,0.010596617880179189,0.008785586406938484,0.002129313005967837,-0.0010172130238995489,-0.005830985978732683,0.01607453683857154,0.0075827496484069164,0.04542620175768372,-0.0034543759497497883,-0.01749558667923858,0.0009639362006039904,0.006265819431717415,-0.03454958305068013,0.0063647349588891785,0.008191691076353353,0.005050642105419994,0.0019370410367910609,0.013680915055086233,-0.0025596863722152988,-0.0202350462653493,-0.0008883175377860132,0.012382081018514516,-0.0022079665697098804,0.015208946245785327,0.05028257908243587
lr_3e-5-epochs_3-fold_3,0.017059393641212298,0.016122287081677185,0.005876701836760574,-0.001003412131386367,-0.010938543465860436,0.03525944724558271,0.015352057948398124,0.0973431485745764,0.00010604419984910024,-0.03626975066740584,0.0007991915204581539,0.01622986652362762,-0.07440178048615918,0.011977929517650577,0.01833010603422113,0.006240766510096374,0.0009066860323989192,0.030312127458561367,-0.004034264007219469,-0.049220157748212846,-0.0033625434071837858,0.020942970626031482,0.0007684882108466105,0.028847715630101665,0.10641098597371956
lr_2e-5-epochs_5-fold_3,0.017621372098258793,0.008158630521855004,0.0129654415731777,0.00976069040064099,-6.001946394938373e-05,0.021445757022274397,0.016802635126315593,0.09078688042505986,-0.0014334411842066045,-0.026258137827072862,-0.0035052813003837585,0.024502288071323552,-0.06082863788594776,0.005988251188126187,0.01203129257814519,-5.653858146663464e-05,0.002160230586837933,0.03464963673058902,-0.003427865517909034,-0.031472094659367886,-0.0149970784543118,0.007871760900623768,-0.006868762368795939,0.0321127638985606,0.08081389290025746
lr_5e-5-epochs_2-fold_3,0.005213334589446248,0.004888696368047743,0.003664061851435362,0.033340368166372016,0.011649651246406554,0.012430665357587566,-0.0034205457830218636,0.05614280541425402,0.014472879764736256,0.0029790997570040834,-0.009534465478004085,0.02132404261004117,-0.026718669465990854,-0.004702552144419202,0.008647993087182457,-0.004168273688295676,0.0014754964599844433,0.030799585035256576,0.0027198025515261784,-0.02720567287165663,-0.011667790115510022,-0.01790530861151484,0.002685680610386316,0.024322279701567764,0.029686980248814516
lr_1e-6-epochs_1-fold_4,-0.013212076798151406,-0.006605371570435651,0.013920071502410853,0.021546837019464474,0.011537168792899476,-0.006833784045361305,0.0013986079801653942,-0.015941086952687086,0.009404580778317134,0.04386856049668312,-0.012247541279773238,-0.019387938834002916,-0.0009928853339886494,-0.004803459396447655,-0.0028732320725694113,-0.012215441285098234,-0.01018448511425708,0.006549825995229918,0.007665663670549231,-0.013851187697484628,-0.0008407391917688561,-0.016445605052815,0.010822407200700289,0.0007156133997228194,-0.03466737457623662
lr_5e-5-epochs_3-fold_3,0.016785230480056874,0.015191575279749986,0.005983965889933985,0.004494511466139897,-0.008422779935965036,0.03011315939612444,0.01331048071912097,0.08724121275261423,-0.004215461418293192,-0.022538177250910896,0.0011546684236521166,0.021894964624236554,-0.0630477857784775,0.009499330942787437,0.015130001216025674,0.002385796776918013,-0.00010007093481833596,0.030960703953589776,-0.005325736853355648,-0.03675702161011049,-0.0045455419812891265,0.014607830077932458,-0.0031213958596432376,0.028678159745587257,0.09313983456027855
lr_3e-5-epochs_5-fold_3,0.22419423514411563,-0.02269579341916811,0.1581621430183272,-0.04091316151991458,0.17685549955172872,0.1487725346423611,0.06648925425499995,0.6905916463698643,-0.29866916242191893,-0.12669860737520064,-0.02227729165470834,0.17803585247577944,-0.1572925479386253,0.06147107465273819,0.1577530169885885,0.22283664869198966,0.17612141375747725,0.10066306075476847,-0.21291951865566114,-0.05870404698358247,-0.0032695575218692208,0.2356275633789031,-0.0176066806414759,0.11433782992160255,0.7344121852773798
lr_1e-6-epochs_2-fold_4,-0.01348708876644581,-0.006434925632835991,0.013711677833456407,0.022093722962845837,0.012054975476045388,-0.006811221131163824,0.0012761248597172575,-0.014995561400640662,0.010130405650701606,0.044010272714163565,-0.01216658122585201,-0.01849984402873981,-0.0014410735327461007,-0.004752616810333747,-0.0025132541881174625,-0.012249213366578623,-0.01055161235210884,0.006526003020251982,0.00802357450569762,-0.014281214628990574,-0.0009813703442400797,-0.016106687459948713,0.0111289226827242,0.0006003029185254498,-0.03323386060384603
lr_2e-6-epochs_1-fold_4,-0.013359757391081412,-0.004182721562172828,0.011969623974872508,0.02471738248257861,0.012422172040725491,-0.006129462085288491,0.000483982790360322,-0.01158812835941454,0.012172570429663293,0.04477280759481079,-0.013528022064232195,-0.016487037219595584,-0.0018917794841301872,-0.004719561920966444,-0.0014953965565218587,-0.011310174452825643,-0.012295668760574308,0.0065817371629024735,0.008962830837277351,-0.01589703142929742,-0.0014279464784003413,-0.017134376837554623,0.012579705098064446,0.0002752952281247158,-0.030078753024386534
lr_1e-6-epochs_3-fold_4,-0.013592494210619603,-0.006358834671004751,0.013628245758604284,0.022778200590646388,0.012041614868679858,-0.006626609952538956,0.0011703593918923087,-0.013587218053848332,0.01069082319984317,0.04369271351549978,-0.012296691212322618,-0.01778302456280575,-0.0015765992294891583,-0.004683749394632208,-0.0023208540062494764,-0.012195173864683159,-0.010639994049338346,0.006639604290065263,0.008169465409161643,-0.014629762109389521,-0.0009570446157579999,-0.016400397162931738,0.01136129893328874,0.0007845091720311021,-0.031993249229337675
lr_5e-5-epochs_5-fold_3,0.1680537474226691,0.0066729498111577495,-0.013707125214741538,0.09510018146964937,0.006730221138187361,0.08211081990604398,0.020506875255951577,0.16734199560457266,-0.14663440386489415,0.03385760462359416,0.055668083404114964,-0.02998435628633968,-0.03610836491154912,-0.003260224273838316,0.08929888107036323,0.12377053412304419,-0.06310559748865921,-0.02318068848582587,-0.035220987707332924,0.1404811242047693,0.01591313238767238,0.005315349978891295,-0.015219746574532941,0.05743781234928276,0.04253810346812868
lr_2e-6-epochs_2-fold_4,-0.013990804134863427,-0.003431154391744083,0.011193959020094698,0.027399104093298016,0.01327357827592652,-0.006194756068984652,0.0013292625708972371,-0.008415206945884914,0.014358126578865505,0.04426451633452559,-0.012874221285347726,-0.014252183649657068,-0.0030513027236776257,-0.0035846685183230195,0.001050943856667451,-0.010272657134847313,-0.013924465698893194,0.006982356983955177,0.009278473859192442,-0.018871307917809475,-0.0012624240554956873,-0.01875145226131508,0.012506845588600256,0.0013178239731874266,-0.023974223677283413
lr_5e-6-epochs_1-fold_4,-0.011638347038083956,-0.005081792943464435,0.01317875017919702,0.03678157989489826,0.014719752172354073,-0.0032356216691966917,0.006806901475787912,0.00453080939823027,0.013960725889228967,0.03756991394909293,-0.008736920496107492,-0.01048169720617606,-0.006985739747418867,-0.006319455130684825,0.01156408215564346,-0.008790534751015969,-0.017524151983560794,0.01675932033929295,0.004922068427125363,-0.02383058636265682,-0.0019180288101343346,-0.01990129574686559,0.01363840704328585,0.0031752497646973005,-0.006501237090139689
lr_2e-6-epochs_3-fold_4,-0.013924895457005019,-0.002840774985199904,0.01146566612124649,0.028220056321524203,0.013213366532065198,-0.006379970083036305,0.0018576872640188374,-0.006161161142854997,0.015226769540950822,0.04324342561913065,-0.012089070981521578,-0.013716901961429495,-0.0041012532276788255,-0.002729501627525038,0.0022349388486792754,-0.009392241667821197,-0.014163199927941744,0.007741676519572627,0.009117313018822818,-0.020302074338575667,-0.0009533564164396031,-0.019551415975618856,0.01245725051787291,0.0017705479188340548,-0.02050071696321207
lr_1e-6-epochs_5-fold_4,-0.012820285724383129,-0.005596695860890087,0.01319428265907248,0.023602203992613226,0.012554387049449224,-0.0065135200677580015,0.0006681884889233897,-0.011112670766685411,0.011092012786694088,0.04313036275788142,-0.012191401082563164,-0.017054831776009888,-0.002554492362806439,-0.003685239444567536,-0.0013200786254667475,-0.011556867472650363,-0.01134633305440413,0.006945977655267229,0.008995886961909423,-0.015804813660014988,-0.00142465128771589,-0.016353517944716716,0.01178113268362538,0.0011920635577635712,-0.029031706664908896
lr_5e-6-epochs_2-fold_4,-0.014776100289685453,-0.01015197130215896,0.01295959460864558,0.051590103987266905,0.01956300755598402,-0.006299952052453617,0.010852550212905892,0.009181227442853195,0.01602496603979596,0.03759567068884533,-0.008537743613461263,-0.01138995632855173,-0.00721674102928355,-0.011797742565939559,0.013415064653714342,-0.011746106759073244,-0.019685774343856873,0.018984868699182898,0.005129236489443769,-0.022692663994583993,-0.000791893155327904,-0.017518039402727018,0.017883810590438195,0.0009012690141133332,-0.007366423085533939
lr_1e-5-epochs_1-fold_4,0.008036798625882588,-0.027735512954387496,0.013246902125055872,0.06137015816058839,0.03215730440294575,-0.01306152618083576,0.008243741228681949,0.040759429835565124,0.012164340186276535,-0.011866886422807093,0.007883078096394694,0.025687837600480747,-0.013441967681924814,-0.014127291098101112,0.015214280813691205,-0.013211598917434224,-0.025275292652559157,0.023502389497072916,-0.0038084965733192555,-0.011594066234071988,-0.014075345749301606,-0.0078104021683466866,0.02008838132449299,0.0031324672365767377,0.0031710076379433006
lr_5e-6-epochs_3-fold_4,-0.01550413183538346,-0.0121875928695248,0.01267131944660171,0.05794450509253353,0.02210542020119148,-0.009479027864904113,0.012866652478611235,0.00961385362317085,0.0186242380667534,0.03513790761777124,-0.006122033324346121,-0.01018895360907636,-0.007189670232462776,-0.0137727951972159,0.01579908913924016,-0.012379656958250785,-0.02260649573156465,0.018888551520964116,0.004519229084218957,-0.022688735226733845,-0.00044994825763171537,-0.016668416448133282,0.01948658124549321,3.826571305327203e-05,-0.006783945469933845
lr_2e-6-epochs_5-fold_4,-0.012070389348552875,-0.0035078925983154955,0.011969263667539299,0.028270628825919766,0.013694309740213254,-0.006109566969955329,0.0023426783487239143,-0.0027999860022493686,0.015819702318914563,0.04212328655892618,-0.011893718446339374,-0.013258182649384657,-0.005488988190632334,-0.0012625553805221059,0.003948806983470658,-0.008768263411100798,-0.01517346339419533,0.00867362395961073,0.00891391707310131,-0.02186546650915023,-0.0011213459162193729,-0.01928717601872946,0.012205895260221152,0.0033479206214168692,-0.016788252654028078
lr_1e-5-epochs_2-fold_4,0.011229794737736474,-0.01902531594579366,0.012153207642879417,0.03708055922296689,0.02420516512031183,-0.007310020359200945,0.004080070964409063,0.05829522030188115,0.0035682740205147355,-0.040413942909447054,0.01672092650056901,0.007018635487690284,-0.018928633034753787,-0.01810114399816444,0.01805037773309786,0.006976977850547663,0.00021506575502099537,0.02653469279753962,-0.0025687067418110263,-0.026611671631014137,-0.01719616413687893,0.009637329480145078,0.011569356157466317,0.005752146817708102,0.035836914410009
lr_2e-5-epochs_1-fold_4,0.02559224464360281,0.0007729661988402046,-2.8650171855286527e-05,-0.00234080124295395,-0.0017971194628608584,0.013699508401945086,0.0023608757774698295,0.049491120989128765,-0.011931797258047001,-0.029230374193253948,0.018495602868807807,0.014978576254527358,-0.017045126833901074,-0.004547490566821769,0.016577586256430406,0.018909477792528693,-0.01114002998376445,0.010554446594890247,0.0043029990615256865,-0.009806146830176311,0.006338785293931655,-0.009381017706472473,-0.00010036712528019558,0.00733982243129365,0.04538144529142472
lr_1e-5-epochs_3-fold_4,0.011380411940116403,-0.02205525526399101,0.016207700937071377,0.04240134405595217,0.02353269246686162,-0.006793718097498528,0.015584492163656436,0.05967467765159361,0.010282767707550383,-0.03332335660806326,0.008425423150488004,8.427155392288478e-05,-0.019893506414829582,-0.02440925833340028,0.024099552100603626,-0.0032473740656427694,-0.01622116643657468,0.029557215410344305,-0.003818454203624159,-0.027716123270019336,-0.01063445766692055,0.0060743247536295415,0.013350172489561668,0.0071678703044508055,0.02882148648297105
lr_5e-6-epochs_5-fold_4,-0.02127209441477911,-0.016452311668800047,0.008931768398976284,0.07635287583423392,0.026648650357788795,-0.019365216741659537,0.018030010356874054,-0.002439467727551894,0.02761906616363737,0.039602123153458395,-0.002493843962569816,-0.009807305192991627,-0.003512365611933153,-0.021080201258961408,0.01941945636086443,-0.016397655904067034,-0.030529712008619328,0.021008201803654716,0.00276119005089576,-0.02228016270286815,0.001211655544714097,-0.017176875461575702,0.026333071356520757,-0.004158887194496091,-0.015361787628682263
lr_2e-5-epochs_2-fold_4,0.058761724763848215,-0.00468650768623053,0.01184197388296504,-0.00575136947794148,-0.0032912109183401215,0.02269206522248186,0.01145256760601433,0.11116793051243805,-0.023248210014768744,-0.06041112345272444,0.043336825212159605,0.033470770185645045,-0.0379941279600169,0.0012038443499385384,0.033466550484196396,0.013331097854677296,-0.015884107729369844,0.007876872602135664,-0.0017761400718218096,-0.011891983067947122,0.015885907787782615,0.009684436171424723,-0.00929302002791171,0.008339811622022367,0.08901614430185126
lr_2e-5-epochs_1-fold_2,0.028216685531083918,-0.01531399734781659,0.012235166128811197,0.014760936533421283,0.020056857354382958,0.016185495931915806,0.006386201052617556,0.10287851906990193,0.00392768805092459,-0.020116233249837703,0.005123301668249757,0.024029881521800404,-0.02621149043058399,0.010438838476944014,0.009678903874130913,0.002842107326766109,-0.03666856182889507,0.010895361293162563,-0.001936616909160244,-0.012702941751504042,0.004755861484389989,-0.006163020444626924,0.010845806168002854,0.0015397424835600368,0.04814382640333401
lr_2e-5-epochs_2-fold_2,0.028038483458885335,-0.022377840270247328,0.016825089607807667,0.016981319015062335,0.015095068401879937,0.018845556937751903,0.014339056797188974,0.12882873621610572,0.02102211360671857,-0.04184137244453055,0.030380774100690098,0.023003914190690086,-0.042088843876215705,0.01385136085217089,0.020534625595024777,-0.006131608514275454,-0.04241139744318635,0.01992585564710097,-0.00880617794837008,-0.039276761059640675,0.020311628156598736,0.004117753668691718,0.008558965530283099,-0.0012246737385439212,0.09808781693659369
lr_2e-5-epochs_3-fold_2,0.004007371958575387,-0.04602596570068719,0.02330143317665175,0.03339619533001727,0.022909789665174495,-0.006226019702094229,0.04776308090066129,0.19028355174995487,0.0404950067034477,-0.10230368912245089,0.08482755012591031,0.02410560210032882,-0.05178238102593292,-0.001413884372703631,0.014258868890651808,-0.022504159918770587,-0.04751416095761948,0.035107537055665335,-0.04861073258149833,-0.06776834969519509,0.014286052482465141,0.052626425310724034,0.06541523828543364,-0.018477637919199902,0.15842702408950016
lr_1e-5-epochs_3-fold_2,-0.0053164120539261174,-0.003275626906639559,0.006075191222304406,0.047323412059627694,0.01748028514788332,-0.011944462920468388,0.01589681140955839,0.044340919636019556,0.029564885126151925,0.03363689585632347,0.008535244674915636,0.008035134150458796,-0.02183785282787284,-0.015560184140215639,0.04048398558134914,-0.0013508679907960764,-0.020806914432043414,0.020306844231898782,0.0011766696325643845,-0.03651856605932715,-0.0020487753801517964,-0.011277655155611063,0.014098830473200749,0.01489557308296177,0.056248617379426755
lr_5e-6-epochs_5-fold_2,-0.028161127899679343,-0.009313951536826773,0.00935358749490477,0.04148804281919464,0.016972586472221312,-0.01666555602400282,0.00986306384199691,-0.003937271347138309,0.034825606552790565,0.042742271621877166,-0.0009796765238915919,-0.012769587183777143,-0.006565898789022535,-0.0065941285077899215,0.006553997217244645,-0.017277146675564462,-0.02230332281535626,0.016219823155238167,0.004729020005435451,-0.038391259344631466,-0.00015672542652476465,-0.018247694723036688,0.020097394599524452,0.00760119323556337,-0.005550120167121195
lr_1e-5-epochs_5-fold_2,-0.004316511714755189,-0.00631946154295817,0.004282064571567544,0.06315033257073083,0.027294068776035938,-0.021585377785227306,0.02393990319743434,0.03705699179585782,0.05523560027663362,0.028322886048352158,0.01703491018794715,-0.0027240474539790608,-0.01774014741198769,-0.024997250509738014,0.06444834929017537,-0.0018623610668008256,-0.02538945095690641,0.027890938063617813,-0.012120260039380083,-0.04733748356389355,-0.0011221512767279722,-0.008812538733750791,0.022685429252004674,0.019737158895956668,0.07010381520628131
lr_2e-5-epochs_5-fold_4,0.08383283465928211,0.0046452459763950404,0.036350679969869716,0.07721950005469166,0.02946164432579508,0.028570362290356532,0.062420114593891636,0.24906428594948488,-0.05084406940351159,-0.1348466289617044,0.05985200992819696,0.05602799038783725,-0.07358814790386416,-0.03640483658075501,0.07945760780824371,0.0700155621335987,0.012431524137295829,0.017921046813700707,-0.0072251493223548235,-0.04112820594850692,-0.002203284173881298,-0.011206195483299888,0.015270236704867397,0.004301650673145828,0.16386774346883673
lr_5e-5-epochs_1-fold_4,0.018156130853489293,0.018665077989996677,0.007338203676472174,-0.0007668491320044304,-0.01442784060178187,0.037455333759213755,0.018343804402869913,0.08960139431003135,-0.0050170711208052075,-0.035538476233852735,0.001657769712631051,0.018400546182889447,-0.0791818752756436,0.011810109775105325,0.018525309518857253,0.009500714136198437,0.005703867702588114,0.03039573200199769,-0.003987980744061065,-0.04608178544272552,-0.0008824666358107983,0.021947206697806587,-0.003640559608317887,0.031906932128866645,0.11201886374958907
lr_3e-5-epochs_1-fold_4,0.026544539018923632,-0.009708562894571834,0.007656392072330142,0.02551387896352727,0.017188885419144928,-0.010565401417310653,0.01095842583315097,0.04642043880248423,0.00010059276062149597,-0.020104588889990744,-0.013976360214862508,0.006895037790727839,-0.011295615400346294,-0.00972771918982666,0.015586462381037915,0.004201414543119363,-0.005170668629520497,0.014409089822055387,-0.0005229919254057811,-0.01881776207519616,-0.0068872417849339266,-0.008292540109534851,0.012724439348640457,0.00038794668357388306,-0.003959621602065785
lr_3e-5-epochs_2-fold_4,0.028887315835031645,-0.007249019955912969,0.014014505710126276,0.0070289777953406254,0.006152451309880814,0.002434261294839295,0.017431882549232655,0.12710383793154398,-0.030124271272263223,-0.05953473337225612,0.03136126141116081,0.014535599422550982,-0.047218134651860276,-0.0032484535710819804,0.03197725828691386,0.024307886682557615,-0.005404475387517184,0.005274106849841989,0.013131730099974759,-0.01687001365906709,-0.0007034423661130152,0.0015490497897600354,-0.0037774660445290178,0.0016515894300271356,0.06467039677383749
lr_5e-5-epochs_2-fold_4,0.011630224278866185,0.007685829654599095,0.008119202049505014,-0.003599587149654876,-0.007629314389859406,0.022356516647859006,0.011236962924426497,0.05864130708004997,-0.004896783844833714,-0.026816212420162272,-0.00012017857795777514,0.016042929454834026,-0.04759452600439031,0.010549332860070865,0.008868291980627524,0.005069057344588199,-0.0009909417547656807,0.01975369387877597,-0.0038788475253682952,-0.029098833967435393,0.001778746173295872,0.0130421030679948,-0.0034203576078314386,0.01857229903968556,0.0673412652661955
lr_3e-5-epochs_3-fold_4,0.011481365494272812,0.012650422749876919,0.007230155524243017,5.261549304554206e-05,-0.00385897270634042,0.015325031831340116,0.009547991976932355,0.05884467909971535,-0.0045656708646579424,-0.013968124345932911,2.2160000186929584e-06,0.017122131066221687,-0.05313527110679937,0.007059530490416167,0.007436242509007854,-0.000803200557092114,0.001571943104726441,0.021496191885188903,-0.0029156500953383194,-0.02082011517873437,-0.0035029600198802375,0.0077920346372375125,-0.0027460106481169352,0.02487398166727548,0.06047866558765568
lr_5e-5-epochs_3-fold_4,0.00853446686391714,0.010410269961519406,0.005919086274955886,9.043981505095992e-05,-0.0054607990375768025,0.018943229277789166,0.009696753712041543,0.054274997567649176,-0.003950059432809779,-0.021687541663410474,0.00044051588918588366,0.013022465215950484,-0.04906786687531933,0.006326339463010557,0.00810071540206559,0.001359534551573115,0.002537655671218085,0.019781050179392128,-0.0021524728748229787,-0.02340817657135667,-0.002530031454408839,0.01036978153698544,-0.000655959594661552,0.02018110010383322,0.060687421251482604
lr_5e-5-epochs_5-fold_4,0.011692941399571407,0.01759768114233022,0.00829169720389017,-0.0030678766699994363,-0.007177152029690309,0.025905769603815167,0.013637201624674002,0.07588311511970854,-0.005921795561124047,-0.030821881938461103,-0.0013601367753969665,0.014268470026343665,-0.06620688601465498,0.010325014743535216,0.014261503515641002,0.0015389637813719177,0.0004964308247754828,0.028732958898929142,-0.005188581506681323,-0.03451727378395153,-0.0010382166819263919,0.014907841550229492,-0.003397894121868493,0.02889961792492042,0.08478249766356374
lr_3e-5-epochs_5-fold_4,-0.029826628088637015,0.02053055195482642,0.01233121429861372,0.16788322870171002,0.02645629402178164,-0.050986348253103206,0.10413674121346714,0.2976465917575892,0.08553811976287418,-0.2764411914747662,0.1644241264168254,0.045533573229506144,-0.14149180265572514,-0.09255846123587246,0.09334777409540108,0.0016800797324517136,-0.028084251008348774,0.0667413351952128,0.0021527388615205575,-0.11732999573185911,0.06551435742181766,0.021531200883157978,0.07925732684899894,-0.05420043211838772,0.23729032525718036
lr_2e-05-epochs_3-fold_4,0.008208431758659183,0.0039303637989919656,0.0018240090266127115,0.017734560901930308,0.009427337592540294,0.015394221846583142,0.010631980645499799,0.07089094802077948,0.013589270694266652,-0.012490595388267309,-0.017111160214396633,0.008960052381256347,-0.02680420938284574,0.0011605735192638292,0.006305717647453486,-0.003789706142033841,-0.0058677444702400225,0.02187411599470194,-0.0005080312965044884,-0.028655269911226647,-0.01134506623242578,0.005655567608476811,0.005923271661149769,0.010961933629168584,0.046023164095361134
lr_1e-05-epochs_5-fold_4,-0.03372882451940338,-0.022873741223437414,0.007146931630048537,0.07105458321032103,0.028705891154393252,-0.014318863356420386,0.041400980431379214,0.054372978456717146,0.040191110489281215,-0.013345068786882809,0.03256386283166597,-0.02479406323818587,-0.029428481280472745,-0.06885253694233558,0.0450164946926961,-0.007844251017788002,-0.040494593256258364,0.04341341125361774,-0.003423038006216872,-0.05829295077430613,0.0070243258658742895,-0.006430620069543582,0.019665539944095662,-0.01091024550714726,0.02413298146010005
